{"learner":{"attributes":{"scikit_learn":"{\"_estimator_type\": \"classifier\"}"},"feature_names":[],"feature_types":[],"gradient_booster":{"model":{"gbtree_model_param":{"num_parallel_tree":"1","num_trees":"300"},"iteration_indptr":[0,1,2,3,4,5,6,7,8,9,10,11,12,13,14,15,16,17,18,19,20,21,22,23,24,25,26,27,28,29,30,31,32,33,34,35,36,37,38,39,40,41,42,43,44,45,46,47,48,49,50,51,52,53,54,55,56,57,58,59,60,61,62,63,64,65,66,67,68,69,70,71,72,73,74,75,76,77,78,79,80,81,82,83,84,85,86,87,88,89,90,91,92,93,94,95,96,97,98,99,100,101,102,103,104,105,106,107,108,109,110,111,112,113,114,115,116,117,118,119,120,121,122,123,124,125,126,127,128,129,130,131,132,133,134,135,136,137,138,139,140,141,142,143,144,145,146,147,148,149,150,151,152,153,154,155,156,157,158,159,160,161,162,163,164,165,166,167,168,169,170,171,172,173,174,175,176,177,178,179,180,181,182,183,184,185,186,187,188,189,190,191,192,193,194,195,196,197,198,199,200,201,202,203,204,205,206,207,208,209,210,211,212,213,214,215,216,217,218,219,220,221,222,223,224,225,226,227,228,229,230,231,232,233,234,235,236,237,238,239,240,241,242,243,244,245,246,247,248,249,250,251,252,253,254,255,256,257,258,259,260,261,262,263,264,265,266,267,268,269,270,271,272,273,274,275,276,277,278,279,280,281,282,283,284,285,286,287,288,289,290,291,292,293,294,295,296,297,298,299,300],"tree_info":[0,0,0,0,0,0,0,0,0,0,0,0,0,0,0,0,0,0,0,0,0,0,0,0,0,0,0,0,0,0,0,0,0,0,0,0,0,0,0,0,0,0,0,0,0,0,0,0,0,0,0,0,0,0,0,0,0,0,0,0,0,0,0,0,0,0,0,0,0,0,0,0,0,0,0,0,0,0,0,0,0,0,0,0,0,0,0,0,0,0,0,0,0,0,0,0,0,0,0,0,0,0,0,0,0,0,0,0,0,0,0,0,0,0,0,0,0,0,0,0,0,0,0,0,0,0,0,0,0,0,0,0,0,0,0,0,0,0,0,0,0,0,0,0,0,0,0,0,0,0,0,0,0,0,0,0,0,0,0,0,0,0,0,0,0,0,0,0,0,0,0,0,0,0,0,0,0,0,0,0,0,0,0,0,0,0,0,0,0,0,0,0,0,0,0,0,0,0,0,0,0,0,0,0,0,0,0,0,0,0,0,0,0,0,0,0,0,0,0,0,0,0,0,0,0,0,0,0,0,0,0,0,0,0,0,0,0,0,0,0,0,0,0,0,0,0,0,0,0,0,0,0,0,0,0,0,0,0,0,0,0,0,0,0,0,0,0,0,0,0,0,0,0,0,0,0,0,0,0,0,0,0,0,0,0,0,0,0,0,0,0,0,0,0,0,0,0,0,0,0],"trees":[{"base_weights":[-2.9418677E-2,-1.2018564E0,2.5726218E0,-1.2767658E-2,-0E0,2.7545495E-2,-0E0],"categories":[],"categories_nodes":[],"categories_segments":[],"categories_sizes":[],"default_left":[0,0,0,0,0,0,0],"id":0,"left_children":[1,3,5,-1,-1,-1,-1],"loss_changes":[2.0079319E3,4.3887024E1,7.788513E1,0E0,0E0,0E0,0E0],"parents":[2147483647,0,0,1,1,2,2],"right_children":[2,4,6,-1,-1,-1,-1],"split_conditions":[3.9985344E-1,3.9950833E-1,1.3234073E-1,-1.2767658E-2,-0E0,2.7545495E-2,-0E0],"split_indices":[75,27,553,0,0,0,0],"split_type":[0,0,0,0,0,0,0],"sum_hessian":[6.3158966E2,4.4621402E2,1.8537567E2,4.2037625E2,2.5837759E1,1.6979099E2,1.5584681E1],"tree_param":{"num_deleted":"0","num_feature":"768","num_nodes":"7","size_leaf_vector":"1"}},{"base_weights":[-0E0,-1.2192308E0,2.5177178E0,-0E0,-1.2784055E-2,-0E0,2.6736187E-2],"categories":[],"categories_nodes":[],"categories_segments":[],"categories_sizes":[],"default_left":[0,0,0,0,0,0,0],"id":1,"left_children":[1,3,5,-1,-1,-1,-1],"loss_changes":[2.0745894E3,3.0579224E1,8.101465E1,0E0,0E0,0E0,0E0],"parents":[2147483647,0,0,1,1,2,2],"right_children":[2,4,6,-1,-1,-1,-1],"split_conditions":[8.302818E-3,-1.9503693E-1,-2.4303213E-1,-0E0,-1.2784055E-2,-0E0,2.6736187E-2],"split_indices":[220,584,218,0,0,0,0],"split_type":[0,0,0,0,0,0,0],"sum_hessian":[6.4428174E2,4.4153238E2,2.0274939E2,2.2755901E1,4.1877646E2,1.354684E1,1.8920255E2],"tree_param":{"num_deleted":"0","num_feature":"768","num_nodes":"7","size_leaf_vector":"1"}},{"base_weights":[-3.6405466E-2,2.5519779E0,-1.1421952E0,2.6429167E-2,-0E0,-0E0,-1.2356285E-2],"categories":[],"categories_nodes":[],"categories_segments":[],"categories_sizes":[],"default_left":[0,0,0,0,0,0,0],"id":2,"left_children":[1,3,5,-1,-1,-1,-1],"loss_changes":[1.8877799E3,3.4230225E1,7.092029E1,0E0,0E0,0E0,0E0],"parents":[2147483647,0,0,1,1,2,2],"right_children":[2,4,6,-1,-1,-1,-1],"split_conditions":[-5.3336877E-1,1.6182242E-1,-6.7760366E-1,2.6429167E-2,-0E0,-0E0,-1.2356285E-2],"split_indices":[597,600,484,0,0,0,0],"split_type":[0,0,0,0,0,0,0],"sum_hessian":[6.336144E2,1.7840503E2,4.5520938E2,1.7008975E2,8.315286E0,2.2262203E1,4.3294717E2],"tree_param":{"num_deleted":"0","num_feature":"768","num_nodes":"7","size_leaf_vector":"1"}},{"base_weights":[-2.5828503E-2,2.4784415E0,-1.1617448E0,-0E0,2.5617905E-2,-0E0,-1.2538637E-2],"categories":[],"categories_nodes":[],"categories_segments":[],"categories_sizes":[],"default_left":[0,0,0,0,0,0,0],"id":3,"left_children":[1,3,5,-1,-1,-1,-1],"loss_changes":[1.9025266E3,3.3632935E1,6.61687E1,0E0,0E0,0E0,0E0],"parents":[2147483647,0,0,1,1,2,2],"right_children":[2,4,6,-1,-1,-1,-1],"split_conditions":[-4.0891013E-1,-3.7233445E-1,-2.807752E-1,-0E0,2.5617905E-2,-0E0,-1.2538637E-2],"split_indices":[597,643,584,0,0,0,0],"split_type":[0,0,0,0,0,0,0],"sum_hessian":[6.424722E2,1.89543E2,4.5292926E2,8.0964985E0,1.814465E2,2.4425648E1,4.285036E2],"tree_param":{"num_deleted":"0","num_feature":"768","num_nodes":"7","size_leaf_vector":"1"}},{"base_weights":[-2.9155063E-2,2.312392E0,-1.2205172E0,2.5154151E-2,-0E0,-0E0,-1.256011E-2],"categories":[],"categories_nodes":[],"categories_segments":[],"categories_sizes":[],"default_left":[0,0,0,0,0,0,0],"id":4,"left_children":[1,3,5,-1,-1,-1,-1],"loss_changes":[1.8363176E3,9.835193E1,2.6512695E1,0E0,0E0,0E0,0E0],"parents":[2147483647,0,0,1,1,2,2],"right_children":[2,4,6,-1,-1,-1,-1],"split_conditions":[-2.9270825E-1,1.5582867E-1,-7.165014E-1,2.5154151E-2,-0E0,-0E0,-1.256011E-2],"split_indices":[597,553,484,0,0,0,0],"split_type":[0,0,0,0,0,0,0],"sum_hessian":[6.307203E2,2.0248431E2,4.2823596E2,1.8402827E2,1.845604E1,8.002362E0,4.2023358E2],"tree_param":{"num_deleted":"0","num_feature":"768","num_nodes":"7","size_leaf_vector":"1"}},{"base_weights":[-1.0248932E-2,2.3364618E0,-1.1850008E0,-0E0,2.465541E-2,-1.248422E-2,-0E0],"categories":[],"categories_nodes":[],"categories_segments":[],"categories_sizes":[],"default_left":[0,0,0,0,0,0,0],"id":5,"left_children":[1,3,5,-1,-1,-1,-1],"loss_changes":[1.8395413E3,6.3697998E1,3.9554626E1,0E0,0E0,0E0,0E0],"parents":[2147483647,0,0,1,1,2,2],"right_children":[2,4,6,-1,-1,-1,-1],"split_conditions":[-3.409895E-1,-3.1832418E-1,1.4092246E-1,-0E0,2.465541E-2,-1.248422E-2,-0E0],"split_indices":[564,512,426,0,0,0,0],"split_type":[0,0,0,0,0,0,0],"sum_hessian":[6.403006E2,2.0316708E2,4.3713354E2,1.1970947E1,1.9119614E2,4.1754352E2,1.9590012E1],"tree_param":{"num_deleted":"0","num_feature":"768","num_nodes":"7","size_leaf_vector":"1"}},{"base_weights":[-3.97227E-2,2.277373E0,-1.2047328E0,2.3925543E-2,-0E0,-1.24388905E-2,-0E0],"categories":[],"categories_nodes":[],"categories_segments":[],"categories_sizes":[],"default_left":[0,0,0,0,0,0,0],"id":6,"left_children":[1,3,5,-1,-1,-1,-1],"loss_changes":[1.7684656E3,5.0663574E1,2.6906189E1,0E0,0E0,0E0,0E0],"parents":[2147483647,0,0,1,1,2,2],"right_children":[2,4,6,-1,-1,-1,-1],"split_conditions":[-2.419115E-1,2.1386509E-1,4.757522E-1,2.3925543E-2,-0E0,-1.24388905E-2,-0E0],"split_indices":[597,215,190,0,0,0,0],"split_type":[0,0,0,0,0,0,0],"sum_hessian":[6.275999E2,1.9966367E2,4.2793622E2,1.8815543E2,1.1508247E1,4.1775443E2,1.0181785E1],"tree_param":{"num_deleted":"0","num_feature":"768","num_nodes":"7","size_leaf_vector":"1"}},{"base_weights":[-9.047479E-2,2.3426301E0,-1.1494163E0,2.4443723E-2,-0E0,-1.2246596E-2,-0E0],"categories":[],"categories_nodes":[],"categories_segments":[],"categories_sizes":[],"default_left":[0,0,0,0,0,0,0],"id":7,"left_children":[1,3,5,-1,-1,-1,-1],"loss_changes":[1.7117153E3,4.7209717E1,5.061267E1,0E0,0E0,0E0,0E0],"parents":[2147483647,0,0,1,1,2,2],"right_children":[2,4,6,-1,-1,-1,-1],"split_conditions":[4.6308175E-2,5.360842E-1,6.569752E-1,2.4443723E-2,-0E0,-1.2246596E-2,-0E0],"split_indices":[553,712,27,0,0,0,0],"split_type":[0,0,0,0,0,0,0],"sum_hessian":[6.374592E2,1.8218811E2,4.5527112E2,1.7385284E2,8.335276E0,4.3276755E2,2.2503567E1],"tree_param":{"num_deleted":"0","num_feature":"768","num_nodes":"7","size_leaf_vector":"1"}},{"base_weights":[-0E0,2.2991433E0,-1.151707E0,2.392873E-2,-0E0,-0E0,-1.2170513E-2],"categories":[],"categories_nodes":[],"categories_segments":[],"categories_sizes":[],"default_left":[0,0,0,0,0,0,0],"id":8,"left_children":[1,3,5,-1,-1,-1,-1],"loss_changes":[1.7401605E3,4.265271E1,4.2240234E1,0E0,0E0,0E0,0E0],"parents":[2147483647,0,0,1,1,2,2],"right_children":[2,4,6,-1,-1,-1,-1],"split_conditions":[-6.462207E-1,1.9121563E-1,-6.5264493E-1,2.392873E-2,-0E0,-0E0,-1.2170513E-2],"split_indices":[584,600,484,0,0,0,0],"split_type":[0,0,0,0,0,0,0],"sum_hessian":[6.289837E2,2.0038382E2,4.2859988E2,1.911365E2,9.247306E0,1.80473E1,4.1055258E2],"tree_param":{"num_deleted":"0","num_feature":"768","num_nodes":"7","size_leaf_vector":"1"}},{"base_weights":[-2.7609402E-2,2.1557205E0,-1.1830229E0,-0E0,2.3392161E-2,-0E0,-1.2282252E-2],"categories":[],"categories_nodes":[],"categories_segments":[],"categories_sizes":[],"default_left":[0,0,0,0,0,0,0],"id":9,"left_children":[1,3,5,-1,-1,-1,-1],"loss_changes":[1.6300038E3,6.9968506E1,2.5017883E1,0E0,0E0,0E0,0E0],"parents":[2147483647,0,0,1,1,2,2],"right_children":[2,4,6,-1,-1,-1,-1],"split_conditions":[-2.840656E-1,1.01423614E-1,-1.7161107E-1,-0E0,2.3392161E-2,-0E0,-1.2282252E-2],"split_indices":[2,585,742,0,0,0,0],"split_type":[0,0,0,0,0,0,0],"sum_hessian":[6.1851666E2,2.0386032E2,4.1465637E2,2.0504173E1,1.8335614E2,1.460363E1,4.0005273E2],"tree_param":{"num_deleted":"0","num_feature":"768","num_nodes":"7","size_leaf_vector":"1"}},{"base_weights":[-3.5211496E-2,-1.1955091E0,2.0755634E0,-0E0,-1.2330136E-2,-0E0,2.2503447E-2],"categories":[],"categories_nodes":[],"categories_segments":[],"categories_sizes":[],"default_left":[0,0,0,0,0,0,0],"id":10,"left_children":[1,3,5,-1,-1,-1,-1],"loss_changes":[1.6289828E3,1.8547546E1,7.184338E1,0E0,0E0,0E0,0E0],"parents":[2147483647,0,0,1,1,2,2],"right_children":[2,4,6,-1,-1,-1,-1],"split_conditions":[2.7400675E-1,-4.901383E-1,-1.8302572E-1,-0E0,-1.2330136E-2,-0E0,2.2503447E-2],"split_indices":[75,503,181,0,0,0,0],"split_type":[0,0,0,0,0,0,0],"sum_hessian":[6.370129E2,4.2100882E2,2.1600407E2,1.4040835E1,4.06968E2,2.0601707E1,1.9540237E2],"tree_param":{"num_deleted":"0","num_feature":"768","num_nodes":"7","size_leaf_vector":"1"}},{"base_weights":[-1.2073628E-2,-1.1878159E-2,2.0923533E0,-0E0,2.2923423E-2],"categories":[],"categories_nodes":[],"categories_segments":[],"categories_sizes":[],"default_left":[0,0,0,0,0],"id":11,"left_children":[1,-1,3,-1,-1],"loss_changes":[1.6593389E3,0E0,7.682959E1,0E0,0E0],"parents":[2147483647,0,0,2,2],"right_children":[2,-1,4,-1,-1],"split_conditions":[8.302818E-3,-1.1878159E-2,-7.075682E-1,-0E0,2.2923423E-2],"split_indices":[220,0,298,0,0],"split_type":[0,0,0,0,0],"sum_hessian":[6.427782E2,4.223142E2,2.2046396E2,2.5005613E1,1.9545836E2],"tree_param":{"num_deleted":"0","num_feature":"768","num_nodes":"5","size_leaf_vector":"1"}},{"base_weights":[-7.6439152E-3,2.1329513E0,-1.147119E0,2.2452945E-2,-0E0,-0E0,-1.220711E-2],"categories":[],"categories_nodes":[],"categories_segments":[],"categories_sizes":[],"default_left":[0,0,0,0,0,0,0],"id":12,"left_children":[1,3,5,-1,-1,-1,-1],"loss_changes":[1.6362993E3,4.687854E1,4.5348938E1,0E0,0E0,0E0,0E0],"parents":[2147483647,0,0,1,1,2,2],"right_children":[2,4,6,-1,-1,-1,-1],"split_conditions":[-4.0891013E-1,4.4528734E-2,-2.807752E-1,2.2452945E-2,-0E0,-0E0,-1.220711E-2],"split_indices":[597,215,584,0,0,0,0],"split_type":[0,0,0,0,0,0,0],"sum_hessian":[6.4366473E2,2.1327312E2,4.303916E2,2.0010498E2,1.3168125E1,2.1884367E1,4.0850723E2],"tree_param":{"num_deleted":"0","num_feature":"768","num_nodes":"7","size_leaf_vector":"1"}},{"base_weights":[-6.406455E-2,2.1809893E0,-1.1035007E0,2.2847733E-2,-0E0,-0E0,-1.210103E-2],"categories":[],"categories_nodes":[],"categories_segments":[],"categories_sizes":[],"default_left":[0,0,0,0,0,0,0],"id":13,"left_children":[1,3,5,-1,-1,-1,-1],"loss_changes":[1.5147024E3,3.953369E1,5.787549E1,0E0,0E0,0E0,0E0],"parents":[2147483647,0,0,1,1,2,2],"right_children":[2,4,6,-1,-1,-1,-1],"split_conditions":[9.652967E-3,1.5529637E-1,-3.5331896E-1,2.2847733E-2,-0E0,-0E0,-1.210103E-2],"split_indices":[553,29,683,0,0,0,0],"split_type":[0,0,0,0,0,0,0],"sum_hessian":[6.224034E2,1.8588646E2,4.3651694E2,1.7544641E2,1.0440049E1,3.686138E1,3.9965555E2],"tree_param":{"num_deleted":"0","num_feature":"768","num_nodes":"7","size_leaf_vector":"1"}},{"base_weights":[-4.5538597E-2,2.0105379E0,-1.1749737E-2,2.1288717E-2,-0E0],"categories":[],"categories_nodes":[],"categories_segments":[],"categories_sizes":[],"default_left":[0,0,0,0,0],"id":14,"left_children":[1,3,-1,-1,-1],"loss_changes":[1.5252719E3,5.0465637E1,0E0,0E0,0E0],"parents":[2147483647,0,0,1,1],"right_children":[2,4,-1,-1,-1],"split_conditions":[-2.419115E-1,9.585914E-1,-1.1749737E-2,2.1288717E-2,-0E0],"split_indices":[597,573,0,0,0],"split_type":[0,0,0,0,0],"sum_hessian":[6.286436E2,2.1284914E2,4.1579443E2,1.9914203E2,1.3707104E1],"tree_param":{"num_deleted":"0","num_feature":"768","num_nodes":"5","size_leaf_vector":"1"}},{"base_weights":[-3.5515077E-2,1.9673812E0,-1.1470301E0,2.131089E-2,-0E0,-1.1942745E-2,-0E0],"categories":[],"categories_nodes":[],"categories_segments":[],"categories_sizes":[],"default_left":[0,0,0,0,0,0,0],"id":15,"left_children":[1,3,5,-1,-1,-1,-1],"loss_changes":[1.4406075E3,6.3497864E1,3.3508545E1,0E0,0E0,0E0,0E0],"parents":[2147483647,0,0,1,1,2,2],"right_children":[2,4,6,-1,-1,-1,-1],"split_conditions":[-2.419115E-1,1.3234073E-1,-1.454409E-1,2.131089E-2,-0E0,-1.1942745E-2,-0E0],"split_indices":[597,553,400,0,0,0,0],"split_type":[0,0,0,0,0,0,0],"sum_hessian":[6.1913293E2,2.1083467E2,4.0829828E2,1.9115671E2,1.9677948E1,3.988085E2,9.489793E0],"tree_param":{"num_deleted":"0","num_feature":"768","num_nodes":"7","size_leaf_vector":"1"}},{"base_weights":[-4.528442E-2,1.9640393E0,-1.1216334E0,-0E0,2.0886933E-2,-0E0,-1.2002621E-2],"categories":[],"categories_nodes":[],"categories_segments":[],"categories_sizes":[],"default_left":[0,0,0,0,0,0,0],"id":16,"left_children":[1,3,5,-1,-1,-1,-1],"loss_changes":[1.4080798E3,5.9798767E1,4.1849E1,0E0,0E0,0E0,0E0],"parents":[2147483647,0,0,1,1,2,2],"right_children":[2,4,6,-1,-1,-1,-1],"split_conditions":[1.1333809E-1,-4.750541E-1,-4.3611583E-1,-0E0,2.0886933E-2,-0E0,-1.2002621E-2],"split_indices":[553,153,584,0,0,0,0],"split_type":[0,0,0,0,0,0,0],"sum_hessian":[6.233706E2,2.0704517E2,4.1632544E2,1.223724E1,1.9480792E2,2.5865149E1,3.904603E2],"tree_param":{"num_deleted":"0","num_feature":"768","num_nodes":"7","size_leaf_vector":"1"}},{"base_weights":[-4.06493E-2,2.0094614E0,-1.1039581E0,2.0956788E-2,-0E0,-0E0,-1.1744226E-2],"categories":[],"categories_nodes":[],"categories_segments":[],"categories_sizes":[],"default_left":[0,0,0,0,0,0,0],"id":17,"left_children":[1,3,5,-1,-1,-1,-1],"loss_changes":[1.4171234E3,3.952179E1,4.8585938E1,0E0,0E0,0E0,0E0],"parents":[2147483647,0,0,1,1,2,2],"right_children":[2,4,6,-1,-1,-1,-1],"split_conditions":[-4.8096827E-1,5.6161225E-1,-3.7748438E-1,2.0956788E-2,-0E0,-0E0,-1.1744226E-2],"split_indices":[597,545,567,0,0,0,0],"split_type":[0,0,0,0,0,0,0],"sum_hessian":[6.2284784E2,2.0209131E2,4.2075656E2,1.934339E2,8.657403E0,1.5728402E1,4.0502814E2],"tree_param":{"num_deleted":"0","num_feature":"768","num_nodes":"7","size_leaf_vector":"1"}},{"base_weights":[-2.2900756E-2,-1.1315888E0,1.920087E0,-1.1722264E-2,-0E0,-0E0,2.0396845E-2],"categories":[],"categories_nodes":[],"categories_segments":[],"categories_sizes":[],"default_left":[0,0,0,0,0,0,0],"id":18,"left_children":[1,3,5,-1,-1,-1,-1],"loss_changes":[1.3957362E3,2.101239E1,6.500458E1,0E0,0E0,0E0,0E0],"parents":[2147483647,0,0,1,1,2,2],"right_children":[2,4,6,-1,-1,-1,-1],"split_conditions":[8.302818E-3,3.6861423E-1,-1.293021E-2,-1.1722264E-2,-0E0,-0E0,2.0396845E-2],"split_indices":[220,107,272,0,0,0,0],"split_type":[0,0,0,0,0,0,0],"sum_hessian":[6.199997E2,4.0484167E2,2.15158E2,3.9139224E2,1.3449444E1,1.080221E1,2.043558E2],"tree_param":{"num_deleted":"0","num_feature":"768","num_nodes":"7","size_leaf_vector":"1"}},{"base_weights":[-4.6646267E-2,-1.1344607E0,1.8694891E0,-0E0,-1.1804305E-2,2.0277647E-2,-0E0],"categories":[],"categories_nodes":[],"categories_segments":[],"categories_sizes":[],"default_left":[0,0,0,0,0,0,0],"id":19,"left_children":[1,3,5,-1,-1,-1,-1],"loss_changes":[1.3457491E3,2.9055786E1,7.868329E1,0E0,0E0,0E0,0E0],"parents":[2147483647,0,0,1,1,2,2],"right_children":[2,4,6,-1,-1,-1,-1],"split_conditions":[8.302818E-3,-5.6359774E-1,-2.146317E-1,-0E0,-1.1804305E-2,2.0277647E-2,-0E0],"split_indices":[220,503,293,0,0,0,0],"split_type":[0,0,0,0,0,0,0],"sum_hessian":[6.173266E2,4.0385822E2,2.1346837E2,1.1288776E1,3.9256943E2,1.9803023E2,1.5438138E1],"tree_param":{"num_deleted":"0","num_feature":"768","num_nodes":"7","size_leaf_vector":"1"}},{"base_weights":[-2.530622E-2,-1.0969764E0,1.8661067E0,-0E0,-1.1811283E-2,-0E0,2.0109935E-2],"categories":[],"categories_nodes":[],"categories_segments":[],"categories_sizes":[],"default_left":[0,0,0,0,0,0,0],"id":20,"left_children":[1,3,5,-1,-1,-1,-1],"loss_changes":[1.3202528E3,4.0498627E1,5.6834045E1,0E0,0E0,0E0,0E0],"parents":[2147483647,0,0,1,1,2,2],"right_children":[2,4,6,-1,-1,-1,-1],"split_conditions":[9.2207186E-2,-2.2885191E-1,-7.3984987E-1,-0E0,-1.1811283E-2,-0E0,2.0109935E-2],"split_indices":[220,584,633,0,0,0,0],"split_type":[0,0,0,0,0,0,0],"sum_hessian":[6.236248E2,4.0837106E2,2.1525374E2,2.9423716E1,3.7894736E2,1.8207403E1,1.9704633E2],"tree_param":{"num_deleted":"0","num_feature":"768","num_nodes":"7","size_leaf_vector":"1"}},{"base_weights":[-2.7814316E-2,-1.1083583E0,1.9009866E0,-0E0,-1.1881824E-2,-0E0,1.9876601E-2],"categories":[],"categories_nodes":[],"categories_segments":[],"categories_sizes":[],"default_left":[0,0,0,0,0,0,0],"id":21,"left_children":[1,3,5,-1,-1,-1,-1],"loss_changes":[1.3309923E3,4.1423462E1,3.7446594E1,0E0,0E0,0E0,0E0],"parents":[2147483647,0,0,1,1,2,2],"right_children":[2,4,6,-1,-1,-1,-1],"split_conditions":[9.2207186E-2,-3.9505564E-2,-2.1325693E-1,-0E0,-1.1881824E-2,-0E0,1.9876601E-2],"split_indices":[220,295,218,0,0,0,0],"split_type":[0,0,0,0,0,0,0],"sum_hessian":[6.109038E2,4.0183475E2,2.0906906E2,2.5044323E1,3.7679044E2,9.807751E0,1.992613E2],"tree_param":{"num_deleted":"0","num_feature":"768","num_nodes":"7","size_leaf_vector":"1"}},{"base_weights":[-4.9924333E-2,1.8160248E0,-1.1129732E0,1.959507E-2,-0E0,-0E0,-1.1735011E-2],"categories":[],"categories_nodes":[],"categories_segments":[],"categories_sizes":[],"default_left":[0,0,0,0,0,0,0],"id":22,"left_children":[1,3,5,-1,-1,-1,-1],"loss_changes":[1.2631427E3,3.655945E1,3.783722E1,0E0,0E0,0E0,0E0],"parents":[2147483647,0,0,1,1,2,2],"right_children":[2,4,6,-1,-1,-1,-1],"split_conditions":[-5.033439E-1,7.2986305E-1,-6.251674E-1,1.959507E-2,-0E0,-0E0,-1.1735011E-2],"split_indices":[584,573,484,0,0,0,0],"split_type":[0,0,0,0,0,0,0],"sum_hessian":[6.0849786E2,2.1067354E2,3.978243E2,1.8807361E2,2.2599928E1,1.4212873E1,3.8361142E2],"tree_param":{"num_deleted":"0","num_feature":"768","num_nodes":"7","size_leaf_vector":"1"}},{"base_weights":[-0E0,1.814953E0,-1.1301188E0,-0E0,1.9644525E-2,-0E0,-1.170787E-2],"categories":[],"categories_nodes":[],"categories_segments":[],"categories_sizes":[],"default_left":[0,0,0,0,0,0,0],"id":23,"left_children":[1,3,5,-1,-1,-1,-1],"loss_changes":[1.3368248E3,7.657074E1,2.4688354E1,0E0,0E0,0E0,0E0],"parents":[2147483647,0,0,1,1,2,2],"right_children":[2,4,6,-1,-1,-1,-1],"split_conditions":[-6.311978E-1,-9.008055E-2,-4.2863518E-1,-0E0,1.9644525E-2,-0E0,-1.170787E-2],"split_indices":[351,321,740,0,0,0,0],"split_type":[0,0,0,0,0,0,0],"sum_hessian":[6.2174115E2,2.3057617E2,3.9116498E2,1.6406698E1,2.1416948E2,9.852401E0,3.813126E2],"tree_param":{"num_deleted":"0","num_feature":"768","num_nodes":"7","size_leaf_vector":"1"}},{"base_weights":[-4.956028E-2,1.7637278E0,-1.1450257E0,1.901437E-2,-0E0,-0E0,-1.1749973E-2],"categories":[],"categories_nodes":[],"categories_segments":[],"categories_sizes":[],"default_left":[0,0,0,0,0,0,0],"id":24,"left_children":[1,3,5,-1,-1,-1,-1],"loss_changes":[1.2710203E3,4.945746E1,1.7248596E1,0E0,0E0,0E0,0E0],"parents":[2147483647,0,0,1,1,2,2],"right_children":[2,4,6,-1,-1,-1,-1],"split_conditions":[-2.9270825E-1,1.3234073E-1,-7.431895E-1,1.901437E-2,-0E0,-0E0,-1.1749973E-2],"split_indices":[597,553,484,0,0,0,0],"split_type":[0,0,0,0,0,0,0],"sum_hessian":[6.108745E2,2.2031137E2,3.9056314E2,2.0086157E2,1.9449799E1,8.033486E0,3.8252963E2],"tree_param":{"num_deleted":"0","num_feature":"768","num_nodes":"7","size_leaf_vector":"1"}},{"base_weights":[-3.0037396E-2,-1.1073692E0,1.7638541E0,-0E0,-1.1607286E-2,1.8689891E-2,-0E0],"categories":[],"categories_nodes":[],"categories_segments":[],"categories_sizes":[],"default_left":[0,0,0,0,0,0,0],"id":25,"left_children":[1,3,5,-1,-1,-1,-1],"loss_changes":[1.2120929E3,3.0609436E1,4.779004E1,0E0,0E0,0E0,0E0],"parents":[2147483647,0,0,1,1,2,2],"right_children":[2,4,6,-1,-1,-1,-1],"split_conditions":[-2.1325693E-1,-2.2702767E-1,2.8854698E-1,-0E0,-1.1607286E-2,1.8689891E-2,-0E0],"split_indices":[218,742,553,0,0,0,0],"split_type":[0,0,0,0,0,0,0],"sum_hessian":[5.9877045E2,3.840872E2,2.1468326E2,1.3309557E1,3.7077765E2,2.0303209E2,1.1651168E1],"tree_param":{"num_deleted":"0","num_feature":"768","num_nodes":"7","size_leaf_vector":"1"}},{"base_weights":[-3.7152883E-2,1.7711908E0,-1.098233E0,1.8688662E-2,-0E0,-1.1468813E-2,-0E0],"categories":[],"categories_nodes":[],"categories_segments":[],"categories_sizes":[],"default_left":[0,0,0,0,0,0,0],"id":26,"left_children":[1,3,5,-1,-1,-1,-1],"loss_changes":[1.2156251E3,5.0433167E1,2.2558197E1,0E0,0E0,0E0,0E0],"parents":[2147483647,0,0,1,1,2,2],"right_children":[2,4,6,-1,-1,-1,-1],"split_conditions":[1.1333809E-1,5.415511E-1,-1.9166975E-1,1.8688662E-2,-0E0,-1.1468813E-2,-0E0],"split_indices":[553,475,218,0,0,0,0],"split_type":[0,0,0,0,0,0,0],"sum_hessian":[6.052633E2,2.1368785E2,3.9157547E2,2.0464413E2,9.043718E0,3.747989E2,1.6776573E1],"tree_param":{"num_deleted":"0","num_feature":"768","num_nodes":"7","size_leaf_vector":"1"}},{"base_weights":[-0E0,-1.1160132E0,1.7522258E0,-1.1487373E-2,-0E0,1.8739982E-2,-0E0],"categories":[],"categories_nodes":[],"categories_segments":[],"categories_sizes":[],"default_left":[0,0,0,0,0,0,0],"id":27,"left_children":[1,3,5,-1,-1,-1,-1],"loss_changes":[1.246168E3,1.8618835E1,6.0313965E1,0E0,0E0,0E0,0E0],"parents":[2147483647,0,0,1,1,2,2],"right_children":[2,4,6,-1,-1,-1,-1],"split_conditions":[-2.8274253E-2,6.926964E-1,-2.0034055E-1,-1.1487373E-2,-0E0,1.8739982E-2,-0E0],"split_indices":[220,261,293,0,0,0,0],"split_type":[0,0,0,0,0,0,0],"sum_hessian":[6.0860913E2,3.8130548E2,2.2730363E2,3.730451E2,8.260362E0,2.137598E2,1.3543845E1],"tree_param":{"num_deleted":"0","num_feature":"768","num_nodes":"7","size_leaf_vector":"1"}},{"base_weights":[-2.3842337E-2,-1.0615809E0,1.7073396E0,-1.1427923E-2,-0E0,1.7934905E-2,-0E0],"categories":[],"categories_nodes":[],"categories_segments":[],"categories_sizes":[],"default_left":[0,0,0,0,0,0,0],"id":28,"left_children":[1,3,5,-1,-1,-1,-1],"loss_changes":[1.1419642E3,4.2047028E1,3.7364624E1,0E0,0E0,0E0,0E0],"parents":[2147483647,0,0,1,1,2,2],"right_children":[2,4,6,-1,-1,-1,-1],"split_conditions":[-1.4901984E-1,2.0019824E-2,-2.2201511E-1,-1.1427923E-2,-0E0,1.7934905E-2,-0E0],"split_indices":[218,510,173,0,0,0,0],"split_type":[0,0,0,0,0,0,0],"sum_hessian":[6.0761505E2,3.9014316E2,2.1747188E2,3.6652878E2,2.3614405E1,2.0710316E2,1.0368716E1],"tree_param":{"num_deleted":"0","num_feature":"768","num_nodes":"7","size_leaf_vector":"1"}},{"base_weights":[-0E0,-1.0810498E0,1.6599174E0,-1.1440237E-2,-0E0,-0E0,1.756254E-2],"categories":[],"categories_nodes":[],"categories_segments":[],"categories_sizes":[],"default_left":[0,0,0,0,0,0,0],"id":29,"left_children":[1,3,5,-1,-1,-1,-1],"loss_changes":[1.1532327E3,2.7870758E1,4.653888E1,0E0,0E0,0E0,0E0],"parents":[2147483647,0,0,1,1,2,2],"right_children":[2,4,6,-1,-1,-1,-1],"split_conditions":[2.4356003E-1,-2.6915464E-1,-4.4736624E-4,-1.1440237E-2,-0E0,-0E0,1.756254E-2],"split_indices":[515,421,369,0,0,0,0],"split_type":[0,0,0,0,0,0,0],"sum_hessian":[6.115465E2,3.7719873E2,2.3434775E2,3.5629016E2,2.0908587E1,1.17300005E1,2.2261775E2],"tree_param":{"num_deleted":"0","num_feature":"768","num_nodes":"7","size_leaf_vector":"1"}},{"base_weights":[-0E0,1.7062246E0,-1.0804633E0,1.7911332E-2,-0E0,-1.1257273E-2,-0E0],"categories":[],"categories_nodes":[],"categories_segments":[],"categories_sizes":[],"default_left":[0,0,0,0,0,0,0],"id":30,"left_children":[1,3,5,-1,-1,-1,-1],"loss_changes":[1.1503208E3,3.5736755E1,2.6514038E1,0E0,0E0,0E0,0E0],"parents":[2147483647,0,0,1,1,2,2],"right_children":[2,4,6,-1,-1,-1,-1],"split_conditions":[-2.9270825E-1,2.9844773E-1,6.9669753E-1,1.7911332E-2,-0E0,-1.1257273E-2,-0E0],"split_indices":[597,553,27,0,0,0,0],"split_type":[0,0,0,0,0,0,0],"sum_hessian":[5.9013275E2,2.2483244E2,3.653003E2,2.1358708E2,1.124536E1,3.560971E2,9.203182E0],"tree_param":{"num_deleted":"0","num_feature":"768","num_nodes":"7","size_leaf_vector":"1"}},{"base_weights":[-1.2646762E-2,-1.0605508E0,1.6822987E0,-0E0,-1.127831E-2,-0E0,1.8101124E-2],"categories":[],"categories_nodes":[],"categories_segments":[],"categories_sizes":[],"default_left":[0,0,0,0,0,0,0],"id":31,"left_children":[1,3,5,-1,-1,-1,-1],"loss_changes":[1.1073579E3,3.7974854E1,3.3057068E1,0E0,0E0,0E0,0E0],"parents":[2147483647,0,0,1,1,2,2],"right_children":[2,4,6,-1,-1,-1,-1],"split_conditions":[9.2207186E-2,-2.308386E-1,8.2515985E-2,-0E0,-1.127831E-2,-0E0,1.8101124E-2],"split_indices":[220,88,170,0,0,0,0],"split_type":[0,0,0,0,0,0,0],"sum_hessian":[5.953372E2,3.7801883E2,2.1731837E2,1.5869155E1,3.621497E2,2.1833506E1,1.9548486E2],"tree_param":{"num_deleted":"0","num_feature":"768","num_nodes":"7","size_leaf_vector":"1"}},{"base_weights":[-2.3229321E-2,-1.0526512E0,1.6570605E0,-1.1176631E-2,-0E0,-0E0,1.7891653E-2],"categories":[],"categories_nodes":[],"categories_segments":[],"categories_sizes":[],"default_left":[0,0,0,0,0,0,0],"id":32,"left_children":[1,3,5,-1,-1,-1,-1],"loss_changes":[1.0854978E3,3.1942322E1,4.945117E1,0E0,0E0,0E0,0E0],"parents":[2147483647,0,0,1,1,2,2],"right_children":[2,4,6,-1,-1,-1,-1],"split_conditions":[9.2207186E-2,-2.070423E-2,-7.075682E-1,-1.1176631E-2,-0E0,-0E0,1.7891653E-2],"split_indices":[220,419,298,0,0,0,0],"split_type":[0,0,0,0,0,0,0],"sum_hessian":[5.993514E2,3.8186865E2,2.1748277E2,3.623864E2,1.9482216E1,1.7900095E1,1.9958267E2],"tree_param":{"num_deleted":"0","num_feature":"768","num_nodes":"7","size_leaf_vector":"1"}},{"base_weights":[-0E0,1.6614647E0,-1.0555485E0,-0E0,1.7479977E-2,-0E0,-1.1153384E-2],"categories":[],"categories_nodes":[],"categories_segments":[],"categories_sizes":[],"default_left":[0,0,0,0,0,0,0],"id":33,"left_children":[1,3,5,-1,-1,-1,-1],"loss_changes":[1.1110771E3,3.3974304E1,3.4255737E1,0E0,0E0,0E0,0E0],"parents":[2147483647,0,0,1,1,2,2],"right_children":[2,4,6,-1,-1,-1,-1],"split_conditions":[-3.191412E-1,-1.4277288E-1,5.8935754E-2,-0E0,1.7479977E-2,-0E0,-1.1153384E-2],"split_indices":[567,15,528,0,0,0,0],"split_type":[0,0,0,0,0,0,0],"sum_hessian":[6.0269714E2,2.2699232E2,3.757048E2,1.2440203E1,2.1455212E2,1.343769E1,3.6226712E2],"tree_param":{"num_deleted":"0","num_feature":"768","num_nodes":"7","size_leaf_vector":"1"}},{"base_weights":[-2.3540262E-2,-1.0550991E0,1.6133435E0,-1.113716E-2,-0E0,-0E0,1.7644728E-2],"categories":[],"categories_nodes":[],"categories_segments":[],"categories_sizes":[],"default_left":[0,0,0,0,0,0,0],"id":34,"left_children":[1,3,5,-1,-1,-1,-1],"loss_changes":[1.057134E3,3.3361084E1,5.012726E1,0E0,0E0,0E0,0E0],"parents":[2147483647,0,0,1,1,2,2],"right_children":[2,4,6,-1,-1,-1,-1],"split_conditions":[-9.578941E-2,-1.2439037E-1,7.7242136E-2,-1.113716E-2,-0E0,-0E0,1.7644728E-2],"split_indices":[41,218,585,0,0,0,0],"split_type":[0,0,0,0,0,0,0],"sum_hessian":[5.975458E2,3.766254E2,2.2092035E2,3.6317758E2,1.3447821E1,2.2910248E1,1.980101E2],"tree_param":{"num_deleted":"0","num_feature":"768","num_nodes":"7","size_leaf_vector":"1"}},{"base_weights":[-0E0,1.5194908E0,-1.091318E0,1.6738767E-2,-0E0,-0E0,-1.1268373E-2],"categories":[],"categories_nodes":[],"categories_segments":[],"categories_sizes":[],"default_left":[0,0,0,0,0,0,0],"id":35,"left_children":[1,3,5,-1,-1,-1,-1],"loss_changes":[1.0288228E3,6.1554382E1,1.8132416E1,0E0,0E0,0E0,0E0],"parents":[2147483647,0,0,1,1,2,2],"right_children":[2,4,6,-1,-1,-1,-1],"split_conditions":[-6.909485E-2,1.1535492E-1,-6.862582E-2,1.6738767E-2,-0E0,-0E0,-1.1268373E-2],"split_indices":[597,651,222,0,0,0,0],"split_type":[0,0,0,0,0,0,0],"sum_hessian":[5.907394E2,2.377451E2,3.5299426E2,2.148897E2,2.2855406E1,8.677512E0,3.4431674E2],"tree_param":{"num_deleted":"0","num_feature":"768","num_nodes":"7","size_leaf_vector":"1"}},{"base_weights":[-2.3503505E-2,1.6234396E0,-1.0300617E0,-0E0,1.691029E-2,-1.12485355E-2,-0E0],"categories":[],"categories_nodes":[],"categories_segments":[],"categories_sizes":[],"default_left":[0,0,0,0,0,0,0],"id":36,"left_children":[1,3,5,-1,-1,-1,-1],"loss_changes":[1.0402639E3,2.6946777E1,4.4973877E1,0E0,0E0,0E0,0E0],"parents":[2147483647,0,0,1,1,2,2],"right_children":[2,4,6,-1,-1,-1,-1],"split_conditions":[1.2406505E-1,-1.5458225E-1,-2.7982667E-1,-0E0,1.691029E-2,-1.12485355E-2,-0E0],"split_indices":[17,181,56,0,0,0,0],"split_type":[0,0,0,0,0,0,0],"sum_hessian":[5.9945416E2,2.1703343E2,3.824207E2,8.911158E0,2.0812228E2,3.534827E2,2.8938017E1],"tree_param":{"num_deleted":"0","num_feature":"768","num_nodes":"7","size_leaf_vector":"1"}},{"base_weights":[-7.812644E-3,-1.0718721E0,1.4825484E0,-1.1203767E-2,-0E0,-0E0,1.6573612E-2],"categories":[],"categories_nodes":[],"categories_segments":[],"categories_sizes":[],"default_left":[0,0,0,0,0,0,0],"id":37,"left_children":[1,3,5,-1,-1,-1,-1],"loss_changes":[9.880452E2,1.9767517E1,6.88869E1,0E0,0E0,0E0,0E0],"parents":[2147483647,0,0,1,1,2,2],"right_children":[2,4,6,-1,-1,-1,-1],"split_conditions":[-6.1927337E-2,-2.5534746E-1,-3.8473252E-2,-1.1203767E-2,-0E0,-0E0,1.6573612E-2],"split_indices":[220,41,321,0,0,0,0],"split_type":[0,0,0,0,0,0,0],"sum_hessian":[5.934124E2,3.5566306E2,2.3774934E2,3.3984204E2,1.5821035E1,2.582746E1,2.1192188E2],"tree_param":{"num_deleted":"0","num_feature":"768","num_nodes":"7","size_leaf_vector":"1"}},{"base_weights":[-0E0,1.60777E0,-1.0238395E0,1.693566E-2,-0E0,-1.1118715E-2,-0E0],"categories":[],"categories_nodes":[],"categories_segments":[],"categories_sizes":[],"default_left":[0,0,0,0,0,0,0],"id":38,"left_children":[1,3,5,-1,-1,-1,-1],"loss_changes":[1.0182991E3,3.8788574E1,3.7326477E1,0E0,0E0,0E0,0E0],"parents":[2147483647,0,0,1,1,2,2],"right_children":[2,4,6,-1,-1,-1,-1],"split_conditions":[-6.7760366E-1,-2.0034055E-1,-2.7844727E-1,1.693566E-2,-0E0,-1.1118715E-2,-0E0],"split_indices":[484,293,400,0,0,0,0],"split_type":[0,0,0,0,0,0,0],"sum_hessian":[5.823158E2,2.2524207E2,3.570737E2,2.1484357E2,1.0398498E1,3.303775E2,2.6696213E1],"tree_param":{"num_deleted":"0","num_feature":"768","num_nodes":"7","size_leaf_vector":"1"}},{"base_weights":[-4.951762E-2,1.5365252E0,-1.0532523E0,-0E0,1.6483024E-2,-0E0,-1.1249804E-2],"categories":[],"categories_nodes":[],"categories_segments":[],"categories_sizes":[],"default_left":[0,0,0,0,0,0,0],"id":39,"left_children":[1,3,5,-1,-1,-1,-1],"loss_changes":[9.9116235E2,3.667987E1,3.187085E1,0E0,0E0,0E0,0E0],"parents":[2147483647,0,0,1,1,2,2],"right_children":[2,4,6,-1,-1,-1,-1],"split_conditions":[-6.5264493E-1,4.7497373E-2,2.0285168E-1,-0E0,1.6483024E-2,-0E0,-1.1249804E-2],"split_indices":[484,15,528,0,0,0,0],"split_type":[0,0,0,0,0,0,0],"sum_hessian":[5.934815E2,2.1995735E2,3.735242E2,1.7547514E1,2.0240984E2,2.3028786E1,3.504954E2],"tree_param":{"num_deleted":"0","num_feature":"768","num_nodes":"7","size_leaf_vector":"1"}},{"base_weights":[-0E0,1.588843E0,-1.0406404E0,-0E0,1.6769594E-2,-0E0,-1.0977117E-2],"categories":[],"categories_nodes":[],"categories_segments":[],"categories_sizes":[],"default_left":[0,0,0,0,0,0,0],"id":40,"left_children":[1,3,5,-1,-1,-1,-1],"loss_changes":[1.0277927E3,4.0474426E1,2.447342E1,0E0,0E0,0E0,0E0],"parents":[2147483647,0,0,1,1,2,2],"right_children":[2,4,6,-1,-1,-1,-1],"split_conditions":[2.88558E-2,-6.1927337E-2,-4.7369143E-1,-0E0,1.6769594E-2,-0E0,-1.0977117E-2],"split_indices":[528,220,584,0,0,0,0],"split_type":[0,0,0,0,0,0,0],"sum_hessian":[5.9117737E2,2.2633713E2,3.6484024E2,1.0508137E1,2.15829E2,1.8362186E1,3.4647806E2],"tree_param":{"num_deleted":"0","num_feature":"768","num_nodes":"7","size_leaf_vector":"1"}},{"base_weights":[-2.0386187E-2,-9.943538E-1,1.5308752E0,-0E0,-1.0902427E-2,1.6053163E-2,-0E0],"categories":[],"categories_nodes":[],"categories_segments":[],"categories_sizes":[],"default_left":[0,0,0,0,0,0,0],"id":41,"left_children":[1,3,5,-1,-1,-1,-1],"loss_changes":[9.242843E2,4.4093292E1,2.9130615E1,0E0,0E0,0E0,0E0],"parents":[2147483647,0,0,1,1,2,2],"right_children":[2,4,6,-1,-1,-1,-1],"split_conditions":[5.303499E-1,-8.274932E-1,4.972032E-2,-0E0,-1.0902427E-2,1.6053163E-2,-0E0],"split_indices":[75,675,532,0,0,0,0],"split_type":[0,0,0,0,0,0,0],"sum_hessian":[5.83662E2,3.6902783E2,2.1463417E2,2.7821718E1,3.4120612E2,2.0495367E2,9.680493E0],"tree_param":{"num_deleted":"0","num_feature":"768","num_nodes":"7","size_leaf_vector":"1"}},{"base_weights":[-0E0,1.4038808E0,-1.0588367E-2,1.547799E-2,-0E0],"categories":[],"categories_nodes":[],"categories_segments":[],"categories_sizes":[],"default_left":[0,0,0,0,0],"id":42,"left_children":[1,3,-1,-1,-1],"loss_changes":[9.072669E2,4.9771576E1,0E0,0E0,0E0],"parents":[2147483647,0,0,1,1],"right_children":[2,4,-1,-1,-1],"split_conditions":[-1.2203364E-1,1.6833067E-1,-1.0588367E-2,1.547799E-2,-0E0],"split_indices":[597,69,0,0,0],"split_type":[0,0,0,0,0],"sum_hessian":[5.7992804E2,2.4068944E2,3.3923862E2,2.157717E2,2.4917742E1],"tree_param":{"num_deleted":"0","num_feature":"768","num_nodes":"5","size_leaf_vector":"1"}},{"base_weights":[-4.1925024E-2,-1.0452353E0,1.3993119E0,-1.1017093E-2,-0E0,-0E0,1.4972008E-2],"categories":[],"categories_nodes":[],"categories_segments":[],"categories_sizes":[],"default_left":[0,0,0,0,0,0,0],"id":43,"left_children":[1,3,5,-1,-1,-1,-1],"loss_changes":[8.653547E2,2.304364E1,3.590564E1,0E0,0E0,0E0,0E0],"parents":[2147483647,0,0,1,1,2,2],"right_children":[2,4,6,-1,-1,-1,-1],"split_conditions":[-2.8394574E-1,5.473601E-1,-6.543084E-1,-1.1017093E-2,-0E0,-0E0,1.4972008E-2],"split_indices":[218,27,533,0,0,0,0],"split_type":[0,0,0,0,0,0,0],"sum_hessian":[5.684115E2,3.4482773E2,2.2358377E2,3.2766885E2,1.715886E1,1.4413152E1,2.0917062E2],"tree_param":{"num_deleted":"0","num_feature":"768","num_nodes":"7","size_leaf_vector":"1"}},{"base_weights":[-6.15176E-3,-1.0087558E0,1.4694805E0,-0E0,-1.0715102E-2,1.5501146E-2,-0E0],"categories":[],"categories_nodes":[],"categories_segments":[],"categories_sizes":[],"default_left":[0,0,0,0,0,0,0],"id":44,"left_children":[1,3,5,-1,-1,-1,-1],"loss_changes":[9.051719E2,3.5415833E1,3.6050232E1,0E0,0E0,0E0,0E0],"parents":[2147483647,0,0,1,1,2,2],"right_children":[2,4,6,-1,-1,-1,-1],"split_conditions":[-1.4901984E-1,-3.603324E-1,2.045785E-1,-0E0,-1.0715102E-2,1.5501146E-2,-0E0],"split_indices":[218,742,163,0,0,0,0],"split_type":[0,0,0,0,0,0,0],"sum_hessian":[5.830807E2,3.5724985E2,2.2583081E2,1.1706779E1,3.455431E2,2.1622774E2,9.603077E0],"tree_param":{"num_deleted":"0","num_feature":"768","num_nodes":"7","size_leaf_vector":"1"}},{"base_weights":[-0E0,1.3885024E0,-1.0392083E0,-0E0,1.5404569E-2,-1.0827816E-2,-0E0],"categories":[],"categories_nodes":[],"categories_segments":[],"categories_sizes":[],"default_left":[0,0,0,0,0,0,0],"id":45,"left_children":[1,3,5,-1,-1,-1,-1],"loss_changes":[8.72968E2,4.9074585E1,1.9825287E1,0E0,0E0,0E0,0E0],"parents":[2147483647,0,0,1,1,2,2],"right_children":[2,4,6,-1,-1,-1,-1],"split_conditions":[-3.7415084E-1,1.5485907E-1,-2.4077754E-1,-0E0,1.5404569E-2,-1.0827816E-2,-0E0],"split_indices":[584,226,56,0,0,0,0],"split_type":[0,0,0,0,0,0,0],"sum_hessian":[5.749194E2,2.3697052E2,3.3794885E2,2.6953024E1,2.100175E2,3.2686563E2,1.1083237E1],"tree_param":{"num_deleted":"0","num_feature":"768","num_nodes":"7","size_leaf_vector":"1"}},{"base_weights":[-0E0,-1.0330188E0,1.4217312E0,-0E0,-1.0893091E-2,1.5120417E-2,-0E0],"categories":[],"categories_nodes":[],"categories_segments":[],"categories_sizes":[],"default_left":[0,0,0,0,0,0,0],"id":46,"left_children":[1,3,5,-1,-1,-1,-1],"loss_changes":[8.7164215E2,2.4597626E1,3.5684296E1,0E0,0E0,0E0,0E0],"parents":[2147483647,0,0,1,1,2,2],"right_children":[2,4,6,-1,-1,-1,-1],"split_conditions":[-2.1325693E-1,-1.9972388E-1,2.571032E-1,-0E0,-1.0893091E-2,1.5120417E-2,-0E0],"split_indices":[218,742,553,0,0,0,0],"split_type":[0,0,0,0,0,0,0],"sum_hessian":[5.639748E2,3.362373E2,2.2773752E2,1.4834347E1,3.2140295E2,2.1498354E2,1.2753984E1],"tree_param":{"num_deleted":"0","num_feature":"768","num_nodes":"7","size_leaf_vector":"1"}},{"base_weights":[-1.4760872E-2,1.4273914E0,-1.0185232E0,-0E0,1.56163145E-2,-0E0,-1.0738757E-2],"categories":[],"categories_nodes":[],"categories_segments":[],"categories_sizes":[],"default_left":[0,0,0,0,0,0,0],"id":47,"left_children":[1,3,5,-1,-1,-1,-1],"loss_changes":[8.713485E2,3.4038483E1,2.4660583E1,0E0,0E0,0E0,0E0],"parents":[2147483647,0,0,1,1,2,2],"right_children":[2,4,6,-1,-1,-1,-1],"split_conditions":[2.4103424E-1,5.535632E-1,9.0732366E-2,-0E0,1.56163145E-2,-0E0,-1.0738757E-2],"split_indices":[17,75,169,0,0,0,0],"split_type":[0,0,0,0,0,0,0],"sum_hessian":[5.726636E2,2.251168E2,3.475468E2,2.587864E1,1.9923816E2,1.5228017E1,3.323188E2],"tree_param":{"num_deleted":"0","num_feature":"768","num_nodes":"7","size_leaf_vector":"1"}},{"base_weights":[-0E0,-1.0149444E0,1.3821332E0,-1.0709522E-2,-0E0,-0E0,1.5230809E-2],"categories":[],"categories_nodes":[],"categories_segments":[],"categories_sizes":[],"default_left":[0,0,0,0,0,0,0],"id":48,"left_children":[1,3,5,-1,-1,-1,-1],"loss_changes":[8.367062E2,1.8227814E1,4.845172E1,0E0,0E0,0E0,0E0],"parents":[2147483647,0,0,1,1,2,2],"right_children":[2,4,6,-1,-1,-1,-1],"split_conditions":[-6.1927337E-2,8.204034E-2,-3.8473252E-2,-1.0709522E-2,-0E0,-0E0,1.5230809E-2],"split_indices":[220,467,321,0,0,0,0],"split_type":[0,0,0,0,0,0,0],"sum_hessian":[5.653063E2,3.3309207E2,2.322142E2,3.1332443E2,1.9767633E1,2.3104496E1,2.0910971E2],"tree_param":{"num_deleted":"0","num_feature":"768","num_nodes":"7","size_leaf_vector":"1"}},{"base_weights":[-0E0,-9.9333286E-1,1.4057039E0,-0E0,-1.068986E-2,-0E0,1.488249E-2],"categories":[],"categories_nodes":[],"categories_segments":[],"categories_sizes":[],"default_left":[0,0,0,0,0,0,0],"id":49,"left_children":[1,3,5,-1,-1,-1,-1],"loss_changes":[8.221157E2,3.2147858E1,1.830777E1,0E0,0E0,0E0,0E0],"parents":[2147483647,0,0,1,1,2,2],"right_children":[2,4,6,-1,-1,-1,-1],"split_conditions":[-1.4901984E-1,4.1736922E-1,-3.4119305E-1,-0E0,-1.068986E-2,-0E0,1.488249E-2],"split_indices":[218,712,741,0,0,0,0],"split_type":[0,0,0,0,0,0,0],"sum_hessian":[5.5927954E2,3.3699686E2,2.222827E2,2.0199959E1,3.167969E2,1.7541569E1,2.0474113E2],"tree_param":{"num_deleted":"0","num_feature":"768","num_nodes":"7","size_leaf_vector":"1"}},{"base_weights":[-0E0,1.4063947E0,-9.773315E-1,1.489379E-2,-0E0,-0E0,-1.0442071E-2],"categories":[],"categories_nodes":[],"categories_segments":[],"categories_sizes":[],"default_left":[0,0,0,0,0,0,0],"id":50,"left_children":[1,3,5,-1,-1,-1,-1],"loss_changes":[8.131693E2,3.0139984E1,3.1346222E1,0E0,0E0,0E0,0E0],"parents":[2147483647,0,0,1,1,2,2],"right_children":[2,4,6,-1,-1,-1,-1],"split_conditions":[-6.251674E-1,6.54537E-2,-6.616954E-1,1.489379E-2,-0E0,-0E0,-1.0442071E-2],"split_indices":[484,532,129,0,0,0,0],"split_type":[0,0,0,0,0,0,0],"sum_hessian":[5.56786E2,2.2632393E2,3.3046207E2,2.1355185E2,1.277209E1,1.433253E1,3.1612955E2],"tree_param":{"num_deleted":"0","num_feature":"768","num_nodes":"7","size_leaf_vector":"1"}},{"base_weights":[-9.000508E-3,1.34786E0,-1.0269105E0,-0E0,1.4547207E-2,-1.0681384E-2,-0E0],"categories":[],"categories_nodes":[],"categories_segments":[],"categories_sizes":[],"default_left":[0,0,0,0,0,0,0],"id":51,"left_children":[1,3,5,-1,-1,-1,-1],"loss_changes":[8.1736584E2,3.1107208E1,1.8669739E1,0E0,0E0,0E0,0E0],"parents":[2147483647,0,0,1,1,2,2],"right_children":[2,4,6,-1,-1,-1,-1],"split_conditions":[-2.9270825E-1,7.816092E-2,1.2037868E-1,-0E0,1.4547207E-2,-1.0681384E-2,-0E0],"split_indices":[597,626,419,0,0,0,0],"split_type":[0,0,0,0,0,0,0],"sum_hessian":[5.6170966E2,2.3124792E2,3.3046173E2,2.0432545E1,2.1081537E2,3.2052054E2,9.941197E0],"tree_param":{"num_deleted":"0","num_feature":"768","num_nodes":"7","size_leaf_vector":"1"}},{"base_weights":[-0E0,-9.7657365E-1,1.4111506E0,-0E0,-1.0584411E-2,1.4740932E-2,-0E0],"categories":[],"categories_nodes":[],"categories_segments":[],"categories_sizes":[],"default_left":[0,0,0,0,0,0,0],"id":52,"left_children":[1,3,5,-1,-1,-1,-1],"loss_changes":[8.1208295E2,3.3041016E1,2.5628143E1,0E0,0E0,0E0,0E0],"parents":[2147483647,0,0,1,1,2,2],"right_children":[2,4,6,-1,-1,-1,-1],"split_conditions":[4.8707634E-1,-4.3626383E-1,1.711006E-1,-0E0,-1.0584411E-2,1.4740932E-2,-0E0],"split_indices":[75,503,651,0,0,0,0],"split_type":[0,0,0,0,0,0,0],"sum_hessian":[5.5912415E2,3.3864255E2,2.2048161E2,2.339525E1,3.1524728E2,2.124282E2,8.0534115E0],"tree_param":{"num_deleted":"0","num_feature":"768","num_nodes":"7","size_leaf_vector":"1"}},{"base_weights":[-8.065625E-3,1.3405483E0,-1.0235276E0,-0E0,1.47029525E-2,-0E0,-1.0798878E-2],"categories":[],"categories_nodes":[],"categories_segments":[],"categories_sizes":[],"default_left":[0,0,0,0,0,0,0],"id":53,"left_children":[1,3,5,-1,-1,-1,-1],"loss_changes":[8.0253424E2,4.4206787E1,2.2989319E1,0E0,0E0,0E0,0E0],"parents":[2147483647,0,0,1,1,2,2],"right_children":[2,4,6,-1,-1,-1,-1],"split_conditions":[2.0285168E-1,-1.0157879E-1,-7.1729416E-1,-0E0,1.47029525E-2,-0E0,-1.0798878E-2],"split_indices":[528,267,193,0,0,0,0],"split_type":[0,0,0,0,0,0,0],"sum_hessian":[5.5592255E2,2.292616E2,3.2666098E2,2.1095924E1,2.0816566E2,1.5222062E1,3.114389E2],"tree_param":{"num_deleted":"0","num_feature":"768","num_nodes":"7","size_leaf_vector":"1"}},{"base_weights":[-0E0,1.3900796E0,-9.875012E-1,-0E0,1.4511718E-2,-1.0519752E-2,-0E0],"categories":[],"categories_nodes":[],"categories_segments":[],"categories_sizes":[],"default_left":[0,0,0,0,0,0,0],"id":54,"left_children":[1,3,5,-1,-1,-1,-1],"loss_changes":[8.098121E2,2.5255798E1,2.0364044E1,0E0,0E0,0E0,0E0],"parents":[2147483647,0,0,1,1,2,2],"right_children":[2,4,6,-1,-1,-1,-1],"split_conditions":[1.5582867E-1,-4.5425016E-1,1.70373E-1,-0E0,1.4511718E-2,-1.0519752E-2,-0E0],"split_indices":[553,512,498,0,0,0,0],"split_type":[0,0,0,0,0,0,0],"sum_hessian":[5.547316E2,2.2925415E2,3.254775E2,8.304577E0,2.2094957E2,3.0318558E2,2.2291916E1],"tree_param":{"num_deleted":"0","num_feature":"768","num_nodes":"7","size_leaf_vector":"1"}},{"base_weights":[-7.910358E-3,-1.0055209E0,1.3072597E0,-0E0,-1.0568134E-2,1.4181927E-2,-0E0],"categories":[],"categories_nodes":[],"categories_segments":[],"categories_sizes":[],"default_left":[0,0,0,0,0,0,0],"id":55,"left_children":[1,3,5,-1,-1,-1,-1],"loss_changes":[7.702169E2,2.112146E1,3.9726837E1,0E0,0E0,0E0,0E0],"parents":[2147483647,0,0,1,1,2,2],"right_children":[2,4,6,-1,-1,-1,-1],"split_conditions":[8.302818E-3,-2.419115E-1,1.5582867E-1,-0E0,-1.0568134E-2,1.4181927E-2,-0E0],"split_indices":[220,597,553,0,0,0,0],"split_type":[0,0,0,0,0,0,0],"sum_hessian":[5.5692114E2,3.263215E2,2.3059962E2,1.3605919E1,3.1271558E2,2.1313153E2,1.7468096E1],"tree_param":{"num_deleted":"0","num_feature":"768","num_nodes":"7","size_leaf_vector":"1"}},{"base_weights":[-0E0,-9.882913E-1,1.3114554E0,-1.0614095E-2,-0E0,-0E0,1.4192977E-2],"categories":[],"categories_nodes":[],"categories_segments":[],"categories_sizes":[],"default_left":[0,0,0,0,0,0,0],"id":56,"left_children":[1,3,5,-1,-1,-1,-1],"loss_changes":[7.611404E2,2.7719574E1,2.8195404E1,0E0,0E0,0E0,0E0],"parents":[2147483647,0,0,1,1,2,2],"right_children":[2,4,6,-1,-1,-1,-1],"split_conditions":[2.354702E-1,-2.7844727E-1,-7.0810646E-2,-1.0614095E-2,-0E0,-0E0,1.4192977E-2],"split_indices":[426,400,42,0,0,0,0],"split_type":[0,0,0,0,0,0,0],"sum_hessian":[5.5639355E2,3.2515283E2,2.312407E2,3.0424103E2,2.0911818E1,2.2294022E1,2.0894669E2],"tree_param":{"num_deleted":"0","num_feature":"768","num_nodes":"7","size_leaf_vector":"1"}},{"base_weights":[-4.445685E-2,1.2851743E0,-9.8688686E-1,1.4137957E-2,-0E0,-1.0403352E-2,-0E0],"categories":[],"categories_nodes":[],"categories_segments":[],"categories_sizes":[],"default_left":[0,0,0,0,0,0,0],"id":57,"left_children":[1,3,5,-1,-1,-1,-1],"loss_changes":[7.1416125E2,3.8697144E1,2.28237E1,0E0,0E0,0E0,0E0],"parents":[2147483647,0,0,1,1,2,2],"right_children":[2,4,6,-1,-1,-1,-1],"split_conditions":[1.5582867E-1,1.05753474E-1,9.0782605E-2,1.4137957E-2,-0E0,-1.0403352E-2,-0E0],"split_indices":[553,29,15,0,0,0,0],"split_type":[0,0,0,0,0,0,0],"sum_hessian":[5.3976276E2,2.1384195E2,3.259208E2,1.9311041E2,2.0731548E1,3.126783E2,1.3242511E1],"tree_param":{"num_deleted":"0","num_feature":"768","num_nodes":"7","size_leaf_vector":"1"}},{"base_weights":[-2.5147744E-2,1.3256532E0,-1.0000291E0,-0E0,1.4036268E-2,-0E0,-1.0604192E-2],"categories":[],"categories_nodes":[],"categories_segments":[],"categories_sizes":[],"default_left":[0,0,0,0,0,0,0],"id":58,"left_children":[1,3,5,-1,-1,-1,-1],"loss_changes":[7.6650964E2,3.1692719E1,1.8729065E1,0E0,0E0,0E0,0E0],"parents":[2147483647,0,0,1,1,2,2],"right_children":[2,4,6,-1,-1,-1,-1],"split_conditions":[1.3234073E-1,-2.8274253E-2,-3.885438E-1,-0E0,1.4036268E-2,-0E0,-1.0604192E-2],"split_indices":[553,220,503,0,0,0,0],"split_type":[0,0,0,0,0,0,0],"sum_hessian":[5.5215875E2,2.2158064E2,3.3057812E2,9.684487E0,2.1189615E2,2.1805733E1,3.087724E2],"tree_param":{"num_deleted":"0","num_feature":"768","num_nodes":"7","size_leaf_vector":"1"}},{"base_weights":[-0E0,-9.6021414E-1,1.338661E0,-1.03319865E-2,-0E0,1.4245778E-2,-0E0],"categories":[],"categories_nodes":[],"categories_segments":[],"categories_sizes":[],"default_left":[0,0,0,0,0,0,0],"id":59,"left_children":[1,3,5,-1,-1,-1,-1],"loss_changes":[7.4159674E2,3.238141E1,2.9105194E1,0E0,0E0,0E0,0E0],"parents":[2147483647,0,0,1,1,2,2],"right_children":[2,4,6,-1,-1,-1,-1],"split_conditions":[-2.947438E-2,-5.9334006E-2,1.2953675E-1,-1.03319865E-2,-0E0,1.4245778E-2,-0E0],"split_indices":[41,400,600,0,0,0,0],"split_type":[0,0,0,0,0,0,0],"sum_hessian":[5.458846E2,3.2502692E2,2.2085765E2,3.087463E2,1.628061E1,2.0737389E2,1.3483777E1],"tree_param":{"num_deleted":"0","num_feature":"768","num_nodes":"7","size_leaf_vector":"1"}},{"base_weights":[-4.7627963E-2,-9.811054E-1,1.2326657E0,-1.0357078E-2,-0E0,-0E0,1.3288478E-2],"categories":[],"categories_nodes":[],"categories_segments":[],"categories_sizes":[],"default_left":[0,0,0,0,0,0,0],"id":60,"left_children":[1,3,5,-1,-1,-1,-1],"loss_changes":[6.5971497E2,2.2539581E1,3.3704254E1,0E0,0E0,0E0,0E0],"parents":[2147483647,0,0,1,1,2,2],"right_children":[2,4,6,-1,-1,-1,-1],"split_conditions":[3.086899E-2,2.779949E-1,7.7242136E-2,-1.0357078E-2,-0E0,-0E0,1.3288478E-2],"split_indices":[419,426,585,0,0,0,0],"split_type":[0,0,0,0,0,0,0],"sum_hessian":[5.2138055E2,3.1150754E2,2.0987299E2,2.9879492E2,1.2712599E1,1.2566808E1,1.9730618E2],"tree_param":{"num_deleted":"0","num_feature":"768","num_nodes":"7","size_leaf_vector":"1"}},{"base_weights":[-0E0,-9.591E-1,1.2984651E0,-1.0427509E-2,-0E0,1.3581615E-2,-0E0],"categories":[],"categories_nodes":[],"categories_segments":[],"categories_sizes":[],"default_left":[0,0,0,0,0,0,0],"id":61,"left_children":[1,3,5,-1,-1,-1,-1],"loss_changes":[7.0284344E2,3.16279E1,1.845108E1,0E0,0E0,0E0,0E0],"parents":[2147483647,0,0,1,1,2,2],"right_children":[2,4,6,-1,-1,-1,-1],"split_conditions":[-2.4076484E-1,5.473601E-1,3.417503E-1,-1.0427509E-2,-0E0,1.3581615E-2,-0E0],"split_indices":[512,27,462,0,0,0,0],"split_type":[0,0,0,0,0,0,0],"sum_hessian":[5.3353973E2,3.1457846E2,2.1896127E2,2.9260056E2,2.1977888E1,2.0867708E2,1.0284203E1],"tree_param":{"num_deleted":"0","num_feature":"768","num_nodes":"7","size_leaf_vector":"1"}},{"base_weights":[-0E0,-1.0045814E-2,1.2600361E0,1.346566E-2,-0E0],"categories":[],"categories_nodes":[],"categories_segments":[],"categories_sizes":[],"default_left":[0,0,0,0,0],"id":62,"left_children":[1,-1,3,-1,-1],"loss_changes":[7.150581E2,0E0,3.5552643E1,0E0,0E0],"parents":[2147483647,0,0,2,2],"right_children":[2,-1,4,-1,-1],"split_conditions":[2.7400675E-1,-1.0045814E-2,1.1974848E-1,1.346566E-2,-0E0],"split_indices":[75,0,474,0,0],"split_type":[0,0,0,0,0],"sum_hessian":[5.3419257E2,3.063428E2,2.2784976E2,2.1700015E2,1.0849609E1],"tree_param":{"num_deleted":"0","num_feature":"768","num_nodes":"5","size_leaf_vector":"1"}},{"base_weights":[-8.335747E-3,-9.834713E-1,1.2450674E0,-0E0,-1.039729E-2,1.3536551E-2,-0E0],"categories":[],"categories_nodes":[],"categories_segments":[],"categories_sizes":[],"default_left":[0,0,0,0,0,0,0],"id":63,"left_children":[1,3,5,-1,-1,-1,-1],"loss_changes":[6.9546063E2,2.1579803E1,3.084903E1,0E0,0E0,0E0,0E0],"parents":[2147483647,0,0,1,1,2,2],"right_children":[2,4,6,-1,-1,-1,-1],"split_conditions":[2.0540962E-1,-2.9712468E-1,9.0371154E-2,-0E0,-1.039729E-2,1.3536551E-2,-0E0],"split_indices":[426,564,215,0,0,0,0],"split_type":[0,0,0,0,0,0,0],"sum_hessian":[5.386132E2,3.126212E2,2.2599208E2,1.4743174E1,2.97878E2,2.0540642E2,2.0585655E1],"tree_param":{"num_deleted":"0","num_feature":"768","num_nodes":"7","size_leaf_vector":"1"}},{"base_weights":[-2.7346234E-3,1.2243333E0,-9.514591E-1,1.3532381E-2,-0E0,-9.99769E-3,-0E0],"categories":[],"categories_nodes":[],"categories_segments":[],"categories_sizes":[],"default_left":[0,0,0,0,0,0,0],"id":64,"left_children":[1,3,5,-1,-1,-1,-1],"loss_changes":[6.613812E2,3.6509827E1,2.1621857E1,0E0,0E0,0E0,0E0],"parents":[2147483647,0,0,1,1,2,2],"right_children":[2,4,6,-1,-1,-1,-1],"split_conditions":[1.3234073E-1,-1.5009566E-1,3.49041E-1,1.3532381E-2,-0E0,-9.99769E-3,-0E0],"split_indices":[553,111,276,0,0,0,0],"split_type":[0,0,0,0,0,0,0],"sum_hessian":[5.3809784E2,2.2466354E2,3.1343427E2,2.0075336E2,2.3910189E1,3.0390375E2,9.530514E0],"tree_param":{"num_deleted":"0","num_feature":"768","num_nodes":"7","size_leaf_vector":"1"}},{"base_weights":[-0E0,-9.482087E-1,1.2213626E0,-9.989345E-3,-0E0,1.3498005E-2,-0E0],"categories":[],"categories_nodes":[],"categories_segments":[],"categories_sizes":[],"default_left":[0,0,0,0,0,0,0],"id":65,"left_children":[1,3,5,-1,-1,-1,-1],"loss_changes":[6.4670276E2,1.9043945E1,3.2919342E1,0E0,0E0,0E0,0E0],"parents":[2147483647,0,0,1,1,2,2],"right_children":[2,4,6,-1,-1,-1,-1],"split_conditions":[-2.4076484E-1,-1.454409E-1,-2.1244305E-1,-9.989345E-3,-0E0,1.3498005E-2,-0E0],"split_indices":[512,400,356,0,0,0,0],"split_type":[0,0,0,0,0,0,0],"sum_hessian":[5.2767566E2,3.055702E2,2.221055E2,2.9272635E2,1.284383E1,1.9683511E2,2.5270376E1],"tree_param":{"num_deleted":"0","num_feature":"768","num_nodes":"7","size_leaf_vector":"1"}},{"base_weights":[-0E0,1.2444081E0,-9.214818E-1,1.3462612E-2,-0E0,-0E0,-1.0130784E-2],"categories":[],"categories_nodes":[],"categories_segments":[],"categories_sizes":[],"default_left":[0,0,0,0,0,0,0],"id":66,"left_children":[1,3,5,-1,-1,-1,-1],"loss_changes":[6.4522705E2,2.9118744E1,2.6315674E1,0E0,0E0,0E0,0E0],"parents":[2147483647,0,0,1,1,2,2],"right_children":[2,4,6,-1,-1,-1,-1],"split_conditions":[6.931911E-2,3.900351E-1,-2.2885191E-1,1.3462612E-2,-0E0,-0E0,-1.0130784E-2],"split_indices":[553,712,584,0,0,0,0],"split_type":[0,0,0,0,0,0,0],"sum_hessian":[5.2977435E2,2.2106776E2,3.087066E2,2.02474E2,1.8593761E1,3.0593788E1,2.7811282E2],"tree_param":{"num_deleted":"0","num_feature":"768","num_nodes":"7","size_leaf_vector":"1"}},{"base_weights":[-0E0,-9.6026415E-1,1.240272E0,-1.019902E-2,-0E0,1.3183526E-2,-0E0],"categories":[],"categories_nodes":[],"categories_segments":[],"categories_sizes":[],"default_left":[0,0,0,0,0,0,0],"id":67,"left_children":[1,3,5,-1,-1,-1,-1],"loss_changes":[6.4937897E2,2.1931854E1,2.00065E1,0E0,0E0,0E0,0E0],"parents":[2147483647,0,0,1,1,2,2],"right_children":[2,4,6,-1,-1,-1,-1],"split_conditions":[-1.9166975E-1,6.36911E-1,2.88558E-2,-1.019902E-2,-0E0,1.3183526E-2,-0E0],"split_indices":[218,27,528,0,0,0,0],"split_type":[0,0,0,0,0,0,0],"sum_hessian":[5.1406116E2,2.9734583E2,2.1671536E2,2.8274274E2,1.46030855E1,2.0136206E2,1.53532915E1],"tree_param":{"num_deleted":"0","num_feature":"768","num_nodes":"7","size_leaf_vector":"1"}},{"base_weights":[-0E0,-9.909054E-3,1.1283885E0,1.3103436E-2,-0E0],"categories":[],"categories_nodes":[],"categories_segments":[],"categories_sizes":[],"default_left":[0,0,0,0,0],"id":68,"left_children":[1,-1,3,-1,-1],"loss_changes":[6.2708765E2,0E0,4.5643982E1,0E0,0E0],"parents":[2147483647,0,0,2,2],"right_children":[2,-1,4,-1,-1],"split_conditions":[1.2693085E-1,-9.909054E-3,-2.1627225E-1,1.3103436E-2,-0E0],"split_indices":[75,0,88,0,0],"split_type":[0,0,0,0,0],"sum_hessian":[5.270686E2,2.8261832E2,2.4445029E2,2.0346494E2,4.0985355E1],"tree_param":{"num_deleted":"0","num_feature":"768","num_nodes":"5","size_leaf_vector":"1"}},{"base_weights":[-7.1032085E-3,-9.656394E-1,1.1416361E0,-1.0172854E-2,-0E0,-0E0,1.2463336E-2],"categories":[],"categories_nodes":[],"categories_segments":[],"categories_sizes":[],"default_left":[0,0,0,0,0,0,0],"id":69,"left_children":[1,3,5,-1,-1,-1,-1],"loss_changes":[6.02604E2,1.8704498E1,3.726013E1,0E0,0E0,0E0,0E0],"parents":[2147483647,0,0,1,1,2,2],"right_children":[2,4,6,-1,-1,-1,-1],"split_conditions":[-6.1927337E-2,2.2385655E-1,-1.8302572E-1,-1.0172854E-2,-0E0,-0E0,1.2463336E-2],"split_indices":[220,369,181,0,0,0,0],"split_type":[0,0,0,0,0,0,0],"sum_hessian":[5.159676E2,2.908139E2,2.2515372E2,2.7842697E2,1.2386915E1,1.4988153E1,2.1016556E2],"tree_param":{"num_deleted":"0","num_feature":"768","num_nodes":"7","size_leaf_vector":"1"}},{"base_weights":[-0E0,-9.326143E-1,1.1998318E0,-1.0251868E-2,-0E0,-0E0,1.3052674E-2],"categories":[],"categories_nodes":[],"categories_segments":[],"categories_sizes":[],"default_left":[0,0,0,0,0,0,0],"id":70,"left_children":[1,3,5,-1,-1,-1,-1],"loss_changes":[6.112864E2,2.739212E1,2.9309418E1,0E0,0E0,0E0,0E0],"parents":[2147483647,0,0,1,1,2,2],"right_children":[2,4,6,-1,-1,-1,-1],"split_conditions":[3.9985344E-1,-3.770162E-1,-1.0157879E-1,-1.0251868E-2,-0E0,-0E0,1.3052674E-2],"split_indices":[75,400,267,0,0,0,0],"split_type":[0,0,0,0,0,0,0],"sum_hessian":[5.141676E2,2.9511896E2,2.1904866E2,2.67359E2,2.7759928E1,1.9391253E1,1.9965741E2],"tree_param":{"num_deleted":"0","num_feature":"768","num_nodes":"7","size_leaf_vector":"1"}},{"base_weights":[-0E0,-9.6247E-3,1.1661228E0,-0E0,1.2494223E-2],"categories":[],"categories_nodes":[],"categories_segments":[],"categories_sizes":[],"default_left":[0,0,0,0,0],"id":71,"left_children":[1,-1,3,-1,-1],"loss_changes":[6.279264E2,0E0,2.5073334E1,0E0,0E0],"parents":[2147483647,0,0,2,2],"right_children":[2,-1,4,-1,-1],"split_conditions":[2.7400675E-1,-9.6247E-3,-9.9253744E-1,-0E0,1.2494223E-2],"split_indices":[75,0,410,0,0],"split_type":[0,0,0,0,0],"sum_hessian":[5.280764E2,2.976734E2,2.3040303E2,1.5827473E1,2.1457555E2],"tree_param":{"num_deleted":"0","num_feature":"768","num_nodes":"5","size_leaf_vector":"1"}},{"base_weights":[-0E0,-9.561457E-3,1.1542184E0,-0E0,1.2713369E-2],"categories":[],"categories_nodes":[],"categories_segments":[],"categories_sizes":[],"default_left":[0,0,0,0,0],"id":72,"left_children":[1,-1,3,-1,-1],"loss_changes":[5.920846E2,0E0,3.1876984E1,0E0,0E0],"parents":[2147483647,0,0,2,2],"right_children":[2,-1,4,-1,-1],"split_conditions":[8.302818E-3,-9.561457E-3,-2.2564954E-1,-0E0,1.2713369E-2],"split_indices":[220,0,512,0,0],"split_type":[0,0,0,0,0],"sum_hessian":[5.044092E2,2.825057E2,2.2190352E2,2.2266968E1,1.9963655E2],"tree_param":{"num_deleted":"0","num_feature":"768","num_nodes":"5","size_leaf_vector":"1"}},{"base_weights":[-0E0,-9.156959E-1,1.2044414E0,-9.993361E-3,-0E0,-0E0,1.3148871E-2],"categories":[],"categories_nodes":[],"categories_segments":[],"categories_sizes":[],"default_left":[0,0,0,0,0,0,0],"id":73,"left_children":[1,3,5,-1,-1,-1,-1],"loss_changes":[6.0435333E2,2.860962E1,2.538034E1,0E0,0E0,0E0,0E0],"parents":[2147483647,0,0,1,1,2,2],"right_children":[2,4,6,-1,-1,-1,-1],"split_conditions":[-2.947438E-2,-2.2597559E-1,1.01423614E-1,-9.993361E-3,-0E0,-0E0,1.3148871E-2],"split_indices":[41,56,585,0,0,0,0],"split_type":[0,0,0,0,0,0,0],"sum_hessian":[5.160451E2,2.992233E2,2.1682181E2,2.7715298E2,2.2070333E1,2.295083E1,1.9387099E2],"tree_param":{"num_deleted":"0","num_feature":"768","num_nodes":"7","size_leaf_vector":"1"}},{"base_weights":[-0E0,-9.147024E-1,1.1766338E0,-0E0,-1.0014968E-2,1.2484859E-2,-0E0],"categories":[],"categories_nodes":[],"categories_segments":[],"categories_sizes":[],"default_left":[0,0,0,0,0,0,0],"id":74,"left_children":[1,3,5,-1,-1,-1,-1],"loss_changes":[5.8339685E2,3.1073212E1,1.9281189E1,0E0,0E0,0E0,0E0],"parents":[2147483647,0,0,1,1,2,2],"right_children":[2,4,6,-1,-1,-1,-1],"split_conditions":[-1.7838304E-1,-7.165014E-1,1.0821534E-2,-0E0,-1.0014968E-2,1.2484859E-2,-0E0],"split_indices":[56,484,742,0,0,0,0],"split_type":[0,0,0,0,0,0,0],"sum_hessian":[5.1156845E2,2.968536E2,2.1471484E2,2.1062384E1,2.7579123E2,2.0118121E2,1.3533627E1],"tree_param":{"num_deleted":"0","num_feature":"768","num_nodes":"7","size_leaf_vector":"1"}},{"base_weights":[-0E0,1.1191938E0,-9.697642E-3,1.2236589E-2,-0E0],"categories":[],"categories_nodes":[],"categories_segments":[],"categories_sizes":[],"default_left":[0,0,0,0,0],"id":75,"left_children":[1,3,-1,-1,-1],"loss_changes":[5.8114844E2,2.74906E1,0E0,0E0,0E0],"parents":[2147483647,0,0,1,1],"right_children":[2,4,-1,-1,-1],"split_conditions":[-1.2203364E-1,1.5582867E-1,-9.697642E-3,1.2236589E-2,-0E0],"split_indices":[597,553,0,0,0],"split_type":[0,0,0,0,0],"sum_hessian":[5.0358813E2,2.2511804E2,2.7847012E2,2.0390245E2,2.121558E1],"tree_param":{"num_deleted":"0","num_feature":"768","num_nodes":"5","size_leaf_vector":"1"}},{"base_weights":[-2.154772E-2,-9.708845E-3,1.0688286E0,-0E0,1.1662549E-2],"categories":[],"categories_nodes":[],"categories_segments":[],"categories_sizes":[],"default_left":[0,0,0,0,0],"id":76,"left_children":[1,-1,3,-1,-1],"loss_changes":[5.624041E2,0E0,3.2108276E1,0E0,0E0],"parents":[2147483647,0,0,2,2],"right_children":[2,-1,4,-1,-1],"split_conditions":[2.7400675E-1,-9.708845E-3,-1.8302572E-1,-0E0,1.1662549E-2],"split_indices":[75,0,181,0,0],"split_type":[0,0,0,0,0],"sum_hessian":[5.1088138E2,2.82434E2,2.284474E2,1.5689052E1,2.1275835E2],"tree_param":{"num_deleted":"0","num_feature":"768","num_nodes":"5","size_leaf_vector":"1"}},{"base_weights":[-0E0,-9.1658115E-1,1.1117918E0,-9.855767E-3,-0E0,1.18278E-2,-0E0],"categories":[],"categories_nodes":[],"categories_segments":[],"categories_sizes":[],"default_left":[0,0,0,0,0,0,0],"id":77,"left_children":[1,3,5,-1,-1,-1,-1],"loss_changes":[5.367954E2,2.157869E1,2.3006348E1,0E0,0E0,0E0,0E0],"parents":[2147483647,0,0,1,1,2,2],"right_children":[2,4,6,-1,-1,-1,-1],"split_conditions":[2.4356003E-1,-2.6915464E-1,2.5062728E-1,-9.855767E-3,-0E0,1.18278E-2,-0E0],"split_indices":[515,421,66,0,0,0,0],"split_type":[0,0,0,0,0,0,0],"sum_hessian":[4.943631E2,2.7672705E2,2.1763605E2,2.5925656E2,1.7470495E1,2.0676164E2,1.0874401E1],"tree_param":{"num_deleted":"0","num_feature":"768","num_nodes":"7","size_leaf_vector":"1"}},{"base_weights":[-3.976948E-3,1.1339086E0,-9.249243E-3,-0E0,1.2316323E-2],"categories":[],"categories_nodes":[],"categories_segments":[],"categories_sizes":[],"default_left":[0,0,0,0,0],"id":78,"left_children":[1,3,-1,-1,-1],"loss_changes":[5.4912366E2,2.4036285E1,0E0,0E0,0E0],"parents":[2147483647,0,0,1,1],"right_children":[2,4,-1,-1,-1],"split_conditions":[1.5582867E-1,-3.087291E-2,-9.249243E-3,-0E0,1.2316323E-2],"split_indices":[553,594,0,0,0],"split_type":[0,0,0,0,0],"sum_hessian":[4.933831E2,2.1068224E2,2.8270087E2,1.8851963E1,1.9183028E2],"tree_param":{"num_deleted":"0","num_feature":"768","num_nodes":"5","size_leaf_vector":"1"}},{"base_weights":[-0E0,-9.225791E-1,1.1463647E0,-9.723452E-3,-0E0,1.2477747E-2,-0E0],"categories":[],"categories_nodes":[],"categories_segments":[],"categories_sizes":[],"default_left":[0,0,0,0,0,0,0],"id":79,"left_children":[1,3,5,-1,-1,-1,-1],"loss_changes":[5.604337E2,1.9298416E1,2.4574493E1,0E0,0E0,0E0,0E0],"parents":[2147483647,0,0,1,1,2,2],"right_children":[2,4,6,-1,-1,-1,-1],"split_conditions":[-2.331314E-1,4.9538854E-1,1.6111916E-1,-9.723452E-3,-0E0,1.2477747E-2,-0E0],"split_indices":[421,426,69,0,0,0,0],"split_type":[0,0,0,0,0,0,0],"sum_hessian":[4.928793E2,2.6802335E2,2.2485596E2,2.6000595E2,8.017405E0,2.0292468E2,2.1931273E1],"tree_param":{"num_deleted":"0","num_feature":"768","num_nodes":"7","size_leaf_vector":"1"}},{"base_weights":[-0E0,1.0528631E0,-9.728858E-3,1.1873523E-2,-0E0],"categories":[],"categories_nodes":[],"categories_segments":[],"categories_sizes":[],"default_left":[0,0,0,0,0],"id":80,"left_children":[1,3,-1,-1,-1],"loss_changes":[5.497272E2,3.65195E1,0E0,0E0,0E0],"parents":[2147483647,0,0,1,1],"right_children":[2,4,-1,-1,-1],"split_conditions":[-1.5525756E-2,6.604284E-1,-9.728858E-3,1.1873523E-2,-0E0],"split_indices":[597,654,0,0,0],"split_type":[0,0,0,0,0],"sum_hessian":[5.036519E2,2.35052E2,2.6859988E2,2.0709079E2,2.7961218E1],"tree_param":{"num_deleted":"0","num_feature":"768","num_nodes":"5","size_leaf_vector":"1"}},{"base_weights":[-0E0,1.1055442E0,-9.14599E-3,-0E0,1.2126816E-2],"categories":[],"categories_nodes":[],"categories_segments":[],"categories_sizes":[],"default_left":[0,0,0,0,0],"id":81,"left_children":[1,3,-1,-1,-1],"loss_changes":[5.3531915E2,2.6062073E1,0E0,0E0,0E0],"parents":[2147483647,0,0,1,1],"right_children":[2,4,-1,-1,-1],"split_conditions":[1.3234073E-1,-1.3901933E-1,-9.14599E-3,-0E0,1.2126816E-2],"split_indices":[553,421,0,0,0],"split_type":[0,0,0,0,0],"sum_hessian":[4.9858063E2,2.1585345E2,2.8272717E2,2.1604473E1,1.9424898E2],"tree_param":{"num_deleted":"0","num_feature":"768","num_nodes":"5","size_leaf_vector":"1"}},{"base_weights":[-5.6660473E-3,1.0778106E0,-9.498486E-3,1.2173921E-2,-0E0],"categories":[],"categories_nodes":[],"categories_segments":[],"categories_sizes":[],"default_left":[0,0,0,0,0],"id":82,"left_children":[1,3,-1,-1,-1],"loss_changes":[5.3548694E2,3.1307098E1,0E0,0E0,0E0],"parents":[2147483647,0,0,1,1],"right_children":[2,4,-1,-1,-1],"split_conditions":[2.0285168E-1,4.6308175E-2,-9.498486E-3,1.2173921E-2,-0E0],"split_indices":[528,553,0,0,0],"split_type":[0,0,0,0,0],"sum_hessian":[4.915616E2,2.1939201E2,2.721696E2,1.8941634E2,2.9975677E1],"tree_param":{"num_deleted":"0","num_feature":"768","num_nodes":"5","size_leaf_vector":"1"}},{"base_weights":[-0E0,1.1491414E0,-8.772698E-1,-0E0,1.2334944E-2,-9.718097E-3,-0E0],"categories":[],"categories_nodes":[],"categories_segments":[],"categories_sizes":[],"default_left":[0,0,0,0,0,0,0],"id":83,"left_children":[1,3,5,-1,-1,-1,-1],"loss_changes":[5.2484753E2,2.0214722E1,2.807222E1,0E0,0E0,0E0,0E0],"parents":[2147483647,0,0,1,1,2,2],"right_children":[2,4,6,-1,-1,-1,-1],"split_conditions":[4.6308175E-2,-8.870246E-2,3.8139892E-1,-0E0,1.2334944E-2,-9.718097E-3,-0E0],"split_indices":[553,42,201,0,0,0,0],"split_type":[0,0,0,0,0,0,0],"sum_hessian":[4.888416E2,2.0529475E2,2.8354688E2,1.6077887E1,1.8921686E2,2.576399E2,2.5906984E1],"tree_param":{"num_deleted":"0","num_feature":"768","num_nodes":"7","size_leaf_vector":"1"}},{"base_weights":[-0E0,1.1333453E-2,-8.564937E-1,-0E0,-9.690813E-3],"categories":[],"categories_nodes":[],"categories_segments":[],"categories_sizes":[],"default_left":[0,0,0,0,0],"id":84,"left_children":[1,-1,3,-1,-1],"loss_changes":[5.0131055E2,0E0,2.780516E1,0E0,0E0],"parents":[2147483647,0,0,2,2],"right_children":[2,-1,4,-1,-1],"split_conditions":[6.931911E-2,1.1333453E-2,-6.7290205E-1,-0E0,-9.690813E-3],"split_indices":[553,0,675,0,0],"split_type":[0,0,0,0,0],"sum_hessian":[4.8239664E2,2.053521E2,2.7704453E2,3.4747414E1,2.4229712E2],"tree_param":{"num_deleted":"0","num_feature":"768","num_nodes":"5","size_leaf_vector":"1"}},{"base_weights":[-0E0,-9.024985E-1,1.0321957E0,-0E0,-9.625321E-3,-0E0,1.1360144E-2],"categories":[],"categories_nodes":[],"categories_segments":[],"categories_sizes":[],"default_left":[0,0,0,0,0,0,0],"id":85,"left_children":[1,3,5,-1,-1,-1,-1],"loss_changes":[4.6875665E2,1.7388794E1,3.269005E1,0E0,0E0,0E0,0E0],"parents":[2147483647,0,0,1,1,2,2],"right_children":[2,4,6,-1,-1,-1,-1],"split_conditions":[2.7400675E-1,-4.3611583E-1,-1.8302572E-1,-0E0,-9.625321E-3,-0E0,1.1360144E-2],"split_indices":[75,584,181,0,0,0,0],"split_type":[0,0,0,0,0,0,0],"sum_hessian":[4.7095593E2,2.5892984E2,2.120261E2,1.4577476E1,2.4435237E2,1.461718E1,1.9740892E2],"tree_param":{"num_deleted":"0","num_feature":"768","num_nodes":"7","size_leaf_vector":"1"}},{"base_weights":[-3.461896E-2,1.0247302E0,-9.1886896E-1,1.183395E-2,-0E0,-9.840799E-3,-0E0],"categories":[],"categories_nodes":[],"categories_segments":[],"categories_sizes":[],"default_left":[0,0,0,0,0,0,0],"id":86,"left_children":[1,3,5,-1,-1,-1,-1],"loss_changes":[4.8455698E2,3.0821365E1,2.0955719E1,0E0,0E0,0E0,0E0],"parents":[2147483647,0,0,1,1,2,2],"right_children":[2,4,6,-1,-1,-1,-1],"split_conditions":[-6.5264493E-1,-2.585188E-1,-5.3753417E-2,1.183395E-2,-0E0,-9.840799E-3,-0E0],"split_indices":[484,356,421,0,0,0,0],"split_type":[0,0,0,0,0,0,0],"sum_hessian":[4.851188E2,2.107318E2,2.74387E2,1.7576746E2,3.4964336E1,2.586878E2,1.5699207E1],"tree_param":{"num_deleted":"0","num_feature":"768","num_nodes":"7","size_leaf_vector":"1"}},{"base_weights":[-7.102943E-3,-9.139423E-1,1.0808214E0,-9.761866E-3,-0E0,-0E0,1.1627782E-2],"categories":[],"categories_nodes":[],"categories_segments":[],"categories_sizes":[],"default_left":[0,0,0,0,0,0,0],"id":87,"left_children":[1,3,5,-1,-1,-1,-1],"loss_changes":[5.0295905E2,1.7246674E1,2.4343872E1,0E0,0E0,0E0,0E0],"parents":[2147483647,0,0,1,1,2,2],"right_children":[2,4,6,-1,-1,-1,-1],"split_conditions":[-2.7198765E-1,-2.7844727E-1,1.5514423E-1,-9.761866E-3,-0E0,-0E0,1.1627782E-2],"split_indices":[512,400,131,0,0,0,0],"split_type":[0,0,0,0,0,0,0],"sum_hessian":[4.7865863E2,2.710607E2,2.0759792E2,2.5359517E2,1.7465542E1,1.2540054E1,1.9505786E2],"tree_param":{"num_deleted":"0","num_feature":"768","num_nodes":"7","size_leaf_vector":"1"}},{"base_weights":[-0E0,-9.529088E-3,1.0265074E0,-0E0,1.1846731E-2],"categories":[],"categories_nodes":[],"categories_segments":[],"categories_sizes":[],"default_left":[0,0,0,0,0],"id":88,"left_children":[1,-1,3,-1,-1],"loss_changes":[5.0742688E2,0E0,4.1679626E1,0E0,0E0],"parents":[2147483647,0,0,2,2],"right_children":[2,-1,4,-1,-1],"split_conditions":[5.447645E-1,-9.529088E-3,-3.8473252E-2,-0E0,1.1846731E-2],"split_indices":[612,0,321,0,0],"split_type":[0,0,0,0,0],"sum_hessian":[4.8461673E2,2.5103996E2,2.3357678E2,3.2744553E1,2.0083223E2],"tree_param":{"num_deleted":"0","num_feature":"768","num_nodes":"5","size_leaf_vector":"1"}},{"base_weights":[-1.630458E-2,9.870644E-1,-9.215223E-3,-0E0,1.1842843E-2],"categories":[],"categories_nodes":[],"categories_segments":[],"categories_sizes":[],"default_left":[0,0,0,0,0],"id":89,"left_children":[1,3,-1,-1,-1],"loss_changes":[4.5606592E2,3.1120697E1,0E0,0E0,0E0],"parents":[2147483647,0,0,1,1],"right_children":[2,4,-1,-1,-1],"split_conditions":[-2.419115E-1,3.0392095E-1,-9.215223E-3,-0E0,1.1842843E-2],"split_indices":[597,194,0,0,0],"split_type":[0,0,0,0,0],"sum_hessian":[4.6932913E2,2.1296053E2,2.563686E2,4.80247E1,1.6493584E2],"tree_param":{"num_deleted":"0","num_feature":"768","num_nodes":"5","size_leaf_vector":"1"}},{"base_weights":[-0E0,-9.36459E-3,1.0367763E0,1.1275036E-2,-0E0],"categories":[],"categories_nodes":[],"categories_segments":[],"categories_sizes":[],"default_left":[0,0,0,0,0],"id":90,"left_children":[1,-1,3,-1,-1],"loss_changes":[4.846021E2,0E0,2.909488E1,0E0,0E0],"parents":[2147483647,0,0,2,2],"right_children":[2,-1,4,-1,-1],"split_conditions":[-1.2481037E-1,-9.36459E-3,-1.4098889E-1,1.1275036E-2,-0E0],"split_indices":[220,0,293,0,0],"split_type":[0,0,0,0,0],"sum_hessian":[4.6595837E2,2.4976367E2,2.1619472E2,2.0306209E2,1.3132629E1],"tree_param":{"num_deleted":"0","num_feature":"768","num_nodes":"5","size_leaf_vector":"1"}},{"base_weights":[-0E0,-9.313654E-3,9.700387E-1,-0E0,1.1386678E-2],"categories":[],"categories_nodes":[],"categories_segments":[],"categories_sizes":[],"default_left":[0,0,0,0,0],"id":91,"left_children":[1,-1,3,-1,-1],"loss_changes":[4.577694E2,0E0,4.4539154E1,0E0,0E0],"parents":[2147483647,0,0,2,2],"right_children":[2,-1,4,-1,-1],"split_conditions":[5.151135E-1,-9.313654E-3,-2.3738104E-1,-0E0,1.1386678E-2],"split_indices":[612,0,7,0,0],"split_type":[0,0,0,0,0],"sum_hessian":[4.7282898E2,2.4334422E2,2.2948476E2,3.324801E1,1.9623674E2],"tree_param":{"num_deleted":"0","num_feature":"768","num_nodes":"5","size_leaf_vector":"1"}},{"base_weights":[-0E0,-8.768307E-1,1.0488842E0,-0E0,-9.551883E-3,1.1159332E-2,-0E0],"categories":[],"categories_nodes":[],"categories_segments":[],"categories_sizes":[],"default_left":[0,0,0,0,0,0,0],"id":92,"left_children":[1,3,5,-1,-1,-1,-1],"loss_changes":[4.652776E2,2.4768066E1,2.0999542E1,0E0,0E0,0E0,0E0],"parents":[2147483647,0,0,1,1,2,2],"right_children":[2,4,6,-1,-1,-1,-1],"split_conditions":[-2.4903306E-1,-8.721483E-1,2.571032E-1,-0E0,-9.551883E-3,1.1159332E-2,-0E0],"split_indices":[400,766,553,0,0,0,0],"split_type":[0,0,0,0,0,0,0],"sum_hessian":[4.7235635E2,2.6005154E2,2.123048E2,1.6444166E1,2.4360738E2,2.024407E2,9.864084E0],"tree_param":{"num_deleted":"0","num_feature":"768","num_nodes":"7","size_leaf_vector":"1"}},{"base_weights":[-0E0,-8.566871E-1,1.0534807E0,-9.431013E-3,-0E0,-0E0,1.1741017E-2],"categories":[],"categories_nodes":[],"categories_segments":[],"categories_sizes":[],"default_left":[0,0,0,0,0,0,0],"id":93,"left_children":[1,3,5,-1,-1,-1,-1],"loss_changes":[4.4684412E2,2.198265E1,2.5610352E1,0E0,0E0,0E0,0E0],"parents":[2147483647,0,0,1,1,2,2],"right_children":[2,4,6,-1,-1,-1,-1],"split_conditions":[1.621611E-1,-2.9073313E-1,-1.9883712E-1,-9.431013E-3,-0E0,-0E0,1.1741017E-2],"split_indices":[220,421,491,0,0,0,0],"split_type":[0,0,0,0,0,0,0],"sum_hessian":[4.6422662E2,2.652455E2,1.9898111E2,2.4060733E2,2.4638193E1,2.3519714E1,1.754614E2],"tree_param":{"num_deleted":"0","num_feature":"768","num_nodes":"7","size_leaf_vector":"1"}},{"base_weights":[-0E0,-8.9210665E-1,1.033459E0,-9.51847E-3,-0E0,1.1645676E-2,-0E0],"categories":[],"categories_nodes":[],"categories_segments":[],"categories_sizes":[],"default_left":[0,0,0,0,0,0,0],"id":94,"left_children":[1,3,5,-1,-1,-1,-1],"loss_changes":[4.5937958E2,1.9535843E1,2.2020721E1,0E0,0E0,0E0,0E0],"parents":[2147483647,0,0,1,1,2,2],"right_children":[2,4,6,-1,-1,-1,-1],"split_conditions":[-1.2439037E-1,2.6033956E-1,-2.1244305E-1,-9.51847E-3,-0E0,1.1645676E-2,-0E0],"split_indices":[218,578,356,0,0,0,0],"split_type":[0,0,0,0,0,0,0],"sum_hessian":[4.6544836E2,2.550594E2,2.1038898E2,2.4354321E2,1.1516178E1,1.7830836E2,3.2080612E1],"tree_param":{"num_deleted":"0","num_feature":"768","num_nodes":"7","size_leaf_vector":"1"}},{"base_weights":[-8.407902E-3,-8.838472E-1,9.450303E-1,-9.660804E-3,-0E0,1.0743785E-2,-0E0],"categories":[],"categories_nodes":[],"categories_segments":[],"categories_sizes":[],"default_left":[0,0,0,0,0,0,0],"id":95,"left_children":[1,3,5,-1,-1,-1,-1],"loss_changes":[4.225573E2,1.8492294E1,3.786969E1,0E0,0E0,0E0,0E0],"parents":[2147483647,0,0,1,1,2,2],"right_children":[2,4,6,-1,-1,-1,-1],"split_conditions":[-2.4903306E-1,6.223829E-1,5.519967E-1,-9.660804E-3,-0E0,1.0743785E-2,-0E0],"split_indices":[400,542,531,0,0,0,0],"split_type":[0,0,0,0,0,0,0],"sum_hessian":[4.7348654E2,2.567822E2,2.1670433E2,2.3197066E2,2.4811546E1,1.966266E2,2.0077719E1],"tree_param":{"num_deleted":"0","num_feature":"768","num_nodes":"7","size_leaf_vector":"1"}},{"base_weights":[-0E0,-8.700285E-1,9.943931E-1,-9.507982E-3,-0E0,1.0848669E-2,-0E0],"categories":[],"categories_nodes":[],"categories_segments":[],"categories_sizes":[],"default_left":[0,0,0,0,0,0,0],"id":96,"left_children":[1,3,5,-1,-1,-1,-1],"loss_changes":[4.26708E2,2.1862396E1,2.0960098E1,0E0,0E0,0E0,0E0],"parents":[2147483647,0,0,1,1,2,2],"right_children":[2,4,6,-1,-1,-1,-1],"split_conditions":[-1.2175959E-1,7.341103E-2,1.11902595E-1,-9.507982E-3,-0E0,1.0848669E-2,-0E0],"split_indices":[41,74,600,0,0,0,0],"split_type":[0,0,0,0,0,0,0],"sum_hessian":[4.6073776E2,2.5253867E2,2.081991E2,2.3287305E2,1.966562E1,1.9001283E2,1.8186268E1],"tree_param":{"num_deleted":"0","num_feature":"768","num_nodes":"7","size_leaf_vector":"1"}},{"base_weights":[-0E0,9.702884E-1,-8.836575E-3,-0E0,1.1288564E-2],"categories":[],"categories_nodes":[],"categories_segments":[],"categories_sizes":[],"default_left":[0,0,0,0,0],"id":97,"left_children":[1,3,-1,-1,-1],"loss_changes":[4.22597E2,2.9048447E1,0E0,0E0,0E0],"parents":[2147483647,0,0,1,1],"right_children":[2,4,-1,-1,-1],"split_conditions":[-2.276157E-1,-2.2369611E-1,-8.836575E-3,-0E0,1.1288564E-2],"split_indices":[564,437,0,0,0],"split_type":[0,0,0,0,0],"sum_hessian":[4.5994162E2,2.1276524E2,2.4717636E2,3.722041E1,1.7554485E2],"tree_param":{"num_deleted":"0","num_feature":"768","num_nodes":"5","size_leaf_vector":"1"}},{"base_weights":[-0E0,-8.512378E-1,1.0313785E0,-0E0,-9.426624E-3,1.1199478E-2,-0E0],"categories":[],"categories_nodes":[],"categories_segments":[],"categories_sizes":[],"default_left":[0,0,0,0,0,0,0],"id":98,"left_children":[1,3,5,-1,-1,-1,-1],"loss_changes":[4.3250006E2,1.8240997E1,2.602803E1,0E0,0E0,0E0,0E0],"parents":[2147483647,0,0,1,1,2,2],"right_children":[2,4,6,-1,-1,-1,-1],"split_conditions":[2.6074597E-1,-3.8657755E-2,3.5756275E-2,-0E0,-9.426624E-3,1.1199478E-2,-0E0],"split_indices":[426,564,251,0,0,0,0],"split_type":[0,0,0,0,0,0,0],"sum_hessian":[4.5563138E2,2.4348914E2,2.1214223E2,2.7549667E1,2.1593947E2,1.9808397E2,1.4058267E1],"tree_param":{"num_deleted":"0","num_feature":"768","num_nodes":"7","size_leaf_vector":"1"}},{"base_weights":[-2.5608612E-2,-9.314102E-3,9.1200495E-1,1.0873574E-2,-0E0],"categories":[],"categories_nodes":[],"categories_segments":[],"categories_sizes":[],"default_left":[0,0,0,0,0],"id":99,"left_children":[1,-1,3,-1,-1],"loss_changes":[4.1854684E2,0E0,3.6041412E1,0E0,0E0],"parents":[2147483647,0,0,2,2],"right_children":[2,-1,4,-1,-1],"split_conditions":[6.737318E-1,-9.314102E-3,-6.823095E-2,1.0873574E-2,-0E0],"split_indices":[612,0,651,0,0],"split_type":[0,0,0,0,0],"sum_hessian":[4.5842697E2,2.4244824E2,2.1597871E2,1.7737808E2,3.860063E1],"tree_param":{"num_deleted":"0","num_feature":"768","num_nodes":"5","size_leaf_vector":"1"}},{"base_weights":[-0E0,1.0200737E0,-8.218511E-1,1.1117776E-2,-0E0,-0E0,-9.3885E-3],"categories":[],"categories_nodes":[],"categories_segments":[],"categories_sizes":[],"default_left":[0,0,0,0,0,0,0],"id":100,"left_children":[1,3,5,-1,-1,-1,-1],"loss_changes":[4.0728674E2,2.263623E1,3.1139038E1,0E0,0E0,0E0,0E0],"parents":[2147483647,0,0,1,1,2,2],"right_children":[2,4,6,-1,-1,-1,-1],"split_conditions":[-1.14029676E-1,1.5529637E-1,-7.377919E-2,1.1117776E-2,-0E0,-0E0,-9.3885E-3],"split_indices":[742,29,93,0,0,0,0],"split_type":[0,0,0,0,0,0,0],"sum_hessian":[4.5430432E2,1.9517352E2,2.591308E2,1.7992851E2,1.5245E1,2.9206707E1,2.299241E2],"tree_param":{"num_deleted":"0","num_feature":"768","num_nodes":"7","size_leaf_vector":"1"}},{"base_weights":[-0E0,-9.115461E-3,9.616274E-1,1.1122582E-2,-0E0],"categories":[],"categories_nodes":[],"categories_segments":[],"categories_sizes":[],"default_left":[0,0,0,0,0],"id":101,"left_children":[1,-1,3,-1,-1],"loss_changes":[4.2018115E2,0E0,2.4472092E1,0E0,0E0],"parents":[2147483647,0,0,2,2],"right_children":[2,-1,4,-1,-1],"split_conditions":[-6.1927337E-2,-9.115461E-3,-1.7676114E-1,1.1122582E-2,-0E0],"split_indices":[220,0,66,0,0],"split_type":[0,0,0,0,0],"sum_hessian":[4.459353E2,2.3486952E2,2.1106578E2,1.7325726E2,3.780851E1],"tree_param":{"num_deleted":"0","num_feature":"768","num_nodes":"5","size_leaf_vector":"1"}},{"base_weights":[-0E0,-8.492222E-1,9.439855E-1,-0E0,-9.519206E-3,-0E0,1.0836027E-2],"categories":[],"categories_nodes":[],"categories_segments":[],"categories_sizes":[],"default_left":[0,0,0,0,0,0,0],"id":102,"left_children":[1,3,5,-1,-1,-1,-1],"loss_changes":[3.927782E2,1.8614899E1,2.6314651E1,0E0,0E0,0E0,0E0],"parents":[2147483647,0,0,1,1,2,2],"right_children":[2,4,6,-1,-1,-1,-1],"split_conditions":[2.6074597E-1,-3.5562325E-1,6.723858E-2,-0E0,-9.519206E-3,-0E0,1.0836027E-2],"split_indices":[426,90,321,0,0,0,0],"split_type":[0,0,0,0,0,0,0],"sum_hessian":[4.5796805E2,2.5145602E2,2.0651204E2,3.425763E1,2.1719838E2,3.1475622E1,1.7503642E2],"tree_param":{"num_deleted":"0","num_feature":"768","num_nodes":"7","size_leaf_vector":"1"}},{"base_weights":[-1.9033208E-2,-8.458168E-1,9.5169616E-1,-0E0,-9.248431E-3,-0E0,1.06323E-2],"categories":[],"categories_nodes":[],"categories_segments":[],"categories_sizes":[],"default_left":[0,0,0,0,0,0,0],"id":103,"left_children":[1,3,5,-1,-1,-1,-1],"loss_changes":[3.8147205E2,2.2859268E1,2.5454391E1,0E0,0E0,0E0,0E0],"parents":[2147483647,0,0,1,1,2,2],"right_children":[2,4,6,-1,-1,-1,-1],"split_conditions":[1.2037868E-1,-2.308386E-1,-1.9161373E-1,-0E0,-9.248431E-3,-0E0,1.06323E-2],"split_indices":[419,88,491,0,0,0,0],"split_type":[0,0,0,0,0,0,0],"sum_hessian":[4.4349765E2,2.5014546E2,1.9335219E2,1.6978197E1,2.3316727E2,1.9300678E1,1.740515E2],"tree_param":{"num_deleted":"0","num_feature":"768","num_nodes":"7","size_leaf_vector":"1"}},{"base_weights":[-0E0,-8.402227E-1,9.5101494E-1,-0E0,-9.426848E-3,1.017984E-2,-0E0],"categories":[],"categories_nodes":[],"categories_segments":[],"categories_sizes":[],"default_left":[0,0,0,0,0,0,0],"id":104,"left_children":[1,3,5,-1,-1,-1,-1],"loss_changes":[3.8146307E2,2.3774048E1,1.9981491E1,0E0,0E0,0E0,0E0],"parents":[2147483647,0,0,1,1,2,2],"right_children":[2,4,6,-1,-1,-1,-1],"split_conditions":[3.735021E-1,-1.6769977E-1,-5.534476E-2,-0E0,-9.426848E-3,1.017984E-2,-0E0],"split_indices":[75,89,12,0,0,0,0],"split_type":[0,0,0,0,0,0,0],"sum_hessian":[4.42872E2,2.341096E2,2.087624E2,2.486768E1,2.0924193E2,1.9931715E2,9.445252E0],"tree_param":{"num_deleted":"0","num_feature":"768","num_nodes":"7","size_leaf_vector":"1"}},{"base_weights":[-0E0,-8.2460445E-1,9.706336E-1,-0E0,-9.320867E-3,-0E0,1.109458E-2],"categories":[],"categories_nodes":[],"categories_segments":[],"categories_sizes":[],"default_left":[0,0,0,0,0,0,0],"id":105,"left_children":[1,3,5,-1,-1,-1,-1],"loss_changes":[3.871842E2,2.655986E1,2.6741714E1,0E0,0E0,0E0,0E0],"parents":[2147483647,0,0,1,1,2,2],"right_children":[2,4,6,-1,-1,-1,-1],"split_conditions":[1.2938622E-1,-2.4829026E-1,-6.1092187E-2,-0E0,-9.320867E-3,-0E0,1.109458E-2],"split_indices":[585,721,7,0,0,0,0],"split_type":[0,0,0,0,0,0,0],"sum_hessian":[4.5232516E2,2.5381908E2,1.985061E2,2.8285835E1,2.2553325E2,2.88322E1,1.696739E2],"tree_param":{"num_deleted":"0","num_feature":"768","num_nodes":"7","size_leaf_vector":"1"}},{"base_weights":[-0E0,9.548381E-1,-8.632463E-3,1.0645764E-2,-0E0],"categories":[],"categories_nodes":[],"categories_segments":[],"categories_sizes":[],"default_left":[0,0,0,0,0],"id":106,"left_children":[1,3,-1,-1,-1],"loss_changes":[3.8139203E2,2.0330475E1,0E0,0E0,0E0],"parents":[2147483647,0,0,1,1],"right_children":[2,4,-1,-1,-1],"split_conditions":[-2.9712468E-1,4.1606644E-1,-8.632463E-3,1.0645764E-2,-0E0],"split_indices":[564,486,0,0,0],"split_type":[0,0,0,0,0],"sum_hessian":[4.3017316E2,1.9614262E2,2.3403052E2,1.7240408E2,2.3738543E1],"tree_param":{"num_deleted":"0","num_feature":"768","num_nodes":"5","size_leaf_vector":"1"}},{"base_weights":[-0E0,-8.356213E-1,1.0021086E0,-9.220695E-3,-0E0,1.0930846E-2,-0E0],"categories":[],"categories_nodes":[],"categories_segments":[],"categories_sizes":[],"default_left":[0,0,0,0,0,0,0],"id":107,"left_children":[1,3,5,-1,-1,-1,-1],"loss_changes":[4.013139E2,2.3243652E1,1.8179413E1,0E0,0E0,0E0,0E0],"parents":[2147483647,0,0,1,1,2,2],"right_children":[2,4,6,-1,-1,-1,-1],"split_conditions":[-1.4716132E-1,3.710542E-1,1.082986E-1,-9.220695E-3,-0E0,1.0930846E-2,-0E0],"split_indices":[41,201,600,0,0,0,0],"split_type":[0,0,0,0,0,0,0],"sum_hessian":[4.421316E2,2.3410489E2,2.0802669E2,2.1656631E2,1.7538576E1,1.8734305E2,2.0683645E1],"tree_param":{"num_deleted":"0","num_feature":"768","num_nodes":"7","size_leaf_vector":"1"}},{"base_weights":[-0E0,-8.779786E-3,9.250152E-1,1.0757067E-2,-0E0],"categories":[],"categories_nodes":[],"categories_segments":[],"categories_sizes":[],"default_left":[0,0,0,0,0],"id":108,"left_children":[1,-1,3,-1,-1],"loss_changes":[3.8001923E2,0E0,3.231537E1,0E0,0E0],"parents":[2147483647,0,0,2,2],"right_children":[2,-1,4,-1,-1],"split_conditions":[-2.8274253E-2,-8.779786E-3,7.5622535E-1,1.0757067E-2,-0E0],"split_indices":[220,0,573,0,0],"split_type":[0,0,0,0,0],"sum_hessian":[4.345358E2,2.292649E2,2.052709E2,1.7528549E2,2.9985424E1],"tree_param":{"num_deleted":"0","num_feature":"768","num_nodes":"5","size_leaf_vector":"1"}},{"base_weights":[-0E0,9.7443795E-1,-8.62771E-3,-0E0,1.0492848E-2],"categories":[],"categories_nodes":[],"categories_segments":[],"categories_sizes":[],"default_left":[0,0,0,0,0],"id":109,"left_children":[1,3,-1,-1,-1],"loss_changes":[3.9667038E2,2.0163116E1,0E0,0E0,0E0],"parents":[2147483647,0,0,1,1],"right_children":[2,4,-1,-1,-1],"split_conditions":[1.3234073E-1,2.7896705E-1,-8.62771E-3,-0E0,1.0492848E-2],"split_indices":[553,366,0,0,0],"split_type":[0,0,0,0,0],"sum_hessian":[4.3821582E2,2.0315157E2,2.3506427E2,1.1973766E1,1.911778E2],"tree_param":{"num_deleted":"0","num_feature":"768","num_nodes":"5","size_leaf_vector":"1"}},{"base_weights":[-0E0,-8.434662E-1,8.868259E-1,-9.265082E-3,-0E0,1.0067914E-2,-0E0],"categories":[],"categories_nodes":[],"categories_segments":[],"categories_sizes":[],"default_left":[0,0,0,0,0,0,0],"id":110,"left_children":[1,3,5,-1,-1,-1,-1],"loss_changes":[3.5290698E2,1.7759338E1,2.3301117E1,0E0,0E0,0E0,0E0],"parents":[2147483647,0,0,1,1,2,2],"right_children":[2,4,6,-1,-1,-1,-1],"split_conditions":[2.0540962E-1,-3.4276706E-1,-1.5853852E-1,-9.265082E-3,-0E0,1.0067914E-2,-0E0],"split_indices":[426,400,147,0,0,0,0],"split_type":[0,0,0,0,0,0,0],"sum_hessian":[4.3868228E2,2.3410081E2,2.0458145E2,2.1179465E2,2.2306168E1,1.7790974E2,2.6671711E1],"tree_param":{"num_deleted":"0","num_feature":"768","num_nodes":"7","size_leaf_vector":"1"}},{"base_weights":[-0E0,9.426545E-1,-8.373055E-1,-0E0,1.0467786E-2,-9.290187E-3,-0E0],"categories":[],"categories_nodes":[],"categories_segments":[],"categories_sizes":[],"default_left":[0,0,0,0,0,0,0],"id":111,"left_children":[1,3,5,-1,-1,-1,-1],"loss_changes":[3.6786002E2,2.18815E1,1.856282E1,0E0,0E0,0E0,0E0],"parents":[2147483647,0,0,1,1,2,2],"right_children":[2,4,6,-1,-1,-1,-1],"split_conditions":[1.5582867E-1,-5.198086E-1,-4.645529E-2,-0E0,1.0467786E-2,-9.290187E-3,-0E0],"split_indices":[553,762,321,0,0,0,0],"split_type":[0,0,0,0,0,0,0],"sum_hessian":[4.323929E2,2.010125E2,2.3138043E2,2.1245253E1,1.7976724E2,2.0626834E2,2.5112093E1],"tree_param":{"num_deleted":"0","num_feature":"768","num_nodes":"7","size_leaf_vector":"1"}},{"base_weights":[-0E0,-9.089957E-3,8.112522E-1,9.6486285E-3,-0E0],"categories":[],"categories_nodes":[],"categories_segments":[],"categories_sizes":[],"default_left":[0,0,0,0,0],"id":112,"left_children":[1,-1,3,-1,-1],"loss_changes":[3.3549072E2,0E0,3.4687515E1,0E0,0E0],"parents":[2147483647,0,0,2,2],"right_children":[2,-1,4,-1,-1],"split_conditions":[-2.6764178E-1,-9.089957E-3,7.910295E-1,9.6486285E-3,-0E0],"split_indices":[220,0,573,0,0],"split_type":[0,0,0,0,0],"sum_hessian":[4.1900836E2,2.051461E2,2.1386226E2,1.8346492E2,3.0397333E1],"tree_param":{"num_deleted":"0","num_feature":"768","num_nodes":"5","size_leaf_vector":"1"}},{"base_weights":[-0E0,9.156695E-1,-8.25275E-1,-0E0,1.0312792E-2,-8.972121E-3,-0E0],"categories":[],"categories_nodes":[],"categories_segments":[],"categories_sizes":[],"default_left":[0,0,0,0,0,0,0],"id":113,"left_children":[1,3,5,-1,-1,-1,-1],"loss_changes":[3.483839E2,2.4209396E1,1.8697372E1,0E0,0E0,0E0,0E0],"parents":[2147483647,0,0,1,1,2,2],"right_children":[2,4,6,-1,-1,-1,-1],"split_conditions":[2.571032E-1,-2.765774E-2,6.569752E-1,-0E0,1.0312792E-2,-8.972121E-3,-0E0],"split_indices":[553,321,27,0,0,0,0],"split_type":[0,0,0,0,0,0,0],"sum_hessian":[4.2610043E2,2.0552553E2,2.2057489E2,2.4332066E1,1.8119347E2,2.0723222E2,1.3342676E1],"tree_param":{"num_deleted":"0","num_feature":"768","num_nodes":"7","size_leaf_vector":"1"}},{"base_weights":[-0E0,-8.1460655E-1,9.464956E-3,-0E0,-8.946046E-3],"categories":[],"categories_nodes":[],"categories_segments":[],"categories_sizes":[],"default_left":[0,0,0,0,0],"id":114,"left_children":[1,3,-1,-1,-1],"loss_changes":[3.4843546E2,1.9147873E1,0E0,0E0,0E0],"parents":[2147483647,0,0,1,1],"right_children":[2,4,-1,-1,-1],"split_conditions":[1.432322E-3,-3.7562352E-1,9.464956E-3,-0E0,-8.946046E-3],"split_indices":[41,504,0,0,0],"split_type":[0,0,0,0,0],"sum_hessian":[4.1938107E2,2.315373E2,1.8784377E2,1.8537086E1,2.1300021E2],"tree_param":{"num_deleted":"0","num_feature":"768","num_nodes":"5","size_leaf_vector":"1"}},{"base_weights":[-0E0,9.1962904E-1,-8.2668114E-1,1.0107509E-2,-0E0,-9.053677E-3,-0E0],"categories":[],"categories_nodes":[],"categories_segments":[],"categories_sizes":[],"default_left":[0,0,0,0,0,0,0],"id":115,"left_children":[1,3,5,-1,-1,-1,-1],"loss_changes":[3.4973993E2,1.7162704E1,1.8937363E1,0E0,0E0,0E0,0E0],"parents":[2147483647,0,0,1,1,2,2],"right_children":[2,4,6,-1,-1,-1,-1],"split_conditions":[1.3234073E-1,1.2406505E-1,4.1106275E-1,1.0107509E-2,-0E0,-9.053677E-3,-0E0],"split_indices":[553,17,201,0,0,0,0],"split_type":[0,0,0,0,0,0,0],"sum_hessian":[4.2702325E2,1.9663214E2,2.3039113E2,1.7664894E2,1.998319E1,2.1236072E2,1.8030409E1],"tree_param":{"num_deleted":"0","num_feature":"768","num_nodes":"7","size_leaf_vector":"1"}},{"base_weights":[-0E0,-8.2946175E-1,8.5977364E-1,-0E0,-8.916904E-3,-0E0,1.018196E-2],"categories":[],"categories_nodes":[],"categories_segments":[],"categories_sizes":[],"default_left":[0,0,0,0,0,0,0],"id":116,"left_children":[1,3,5,-1,-1,-1,-1],"loss_changes":[3.2570447E2,1.7346375E1,2.3654099E1,0E0,0E0,0E0,0E0],"parents":[2147483647,0,0,1,1,2,2],"right_children":[2,4,6,-1,-1,-1,-1],"split_conditions":[-1.4901984E-1,-2.308386E-1,2.2547004E-1,-0E0,-8.916904E-3,-0E0,1.018196E-2],"split_indices":[218,88,41,0,0,0,0],"split_type":[0,0,0,0,0,0,0],"sum_hessian":[4.2343045E2,2.25814E2,1.9761647E2,1.0891812E1,2.1492218E2,3.877309E1,1.5884337E2],"tree_param":{"num_deleted":"0","num_feature":"768","num_nodes":"7","size_leaf_vector":"1"}},{"base_weights":[-0E0,-8.396151E-3,8.360539E-1,-0E0,1.0050637E-2],"categories":[],"categories_nodes":[],"categories_segments":[],"categories_sizes":[],"default_left":[0,0,0,0,0],"id":117,"left_children":[1,-1,3,-1,-1],"loss_changes":[3.1690942E2,0E0,2.2292007E1,0E0,0E0],"parents":[2147483647,0,0,2,2],"right_children":[2,-1,4,-1,-1],"split_conditions":[-2.4303213E-1,-8.396151E-3,-2.5232562E-1,-0E0,1.0050637E-2],"split_indices":[218,0,275,0,0],"split_type":[0,0,0,0,0],"sum_hessian":[4.1737775E2,2.1805219E2,1.9932558E2,4.4568817E1,1.5475676E2],"tree_param":{"num_deleted":"0","num_feature":"768","num_nodes":"5","size_leaf_vector":"1"}},{"base_weights":[-0E0,-8.929954E-3,8.3715725E-1,9.9020135E-3,-0E0],"categories":[],"categories_nodes":[],"categories_segments":[],"categories_sizes":[],"default_left":[0,0,0,0,0],"id":118,"left_children":[1,-1,3,-1,-1],"loss_changes":[3.4384485E2,0E0,3.0544006E1,0E0,0E0],"parents":[2147483647,0,0,2,2],"right_children":[2,-1,4,-1,-1],"split_conditions":[3.9250355E-2,-8.929954E-3,-1.7857896E-1,9.9020135E-3,-0E0],"split_indices":[554,0,88,0,0],"split_type":[0,0,0,0,0],"sum_hessian":[4.252668E2,2.1047314E2,2.1479367E2,1.7983096E2,3.4962708E1],"tree_param":{"num_deleted":"0","num_feature":"768","num_nodes":"5","size_leaf_vector":"1"}},{"base_weights":[-0E0,-8.158368E-3,8.312698E-1,-0E0,1.0264183E-2],"categories":[],"categories_nodes":[],"categories_segments":[],"categories_sizes":[],"default_left":[0,0,0,0,0],"id":119,"left_children":[1,-1,3,-1,-1],"loss_changes":[3.0249335E2,0E0,2.6131134E1,0E0,0E0],"parents":[2147483647,0,0,2,2],"right_children":[2,-1,4,-1,-1],"split_conditions":[3.735021E-1,-8.158368E-3,-2.346143E-1,-0E0,1.0264183E-2],"split_indices":[75,0,762,0,0],"split_type":[0,0,0,0,0],"sum_hessian":[4.1235104E2,2.1665613E2,1.956949E2,4.8385777E1,1.4730913E2],"tree_param":{"num_deleted":"0","num_feature":"768","num_nodes":"5","size_leaf_vector":"1"}},{"base_weights":[-0E0,-8.024373E-1,9.418283E-3,-0E0,-8.987729E-3],"categories":[],"categories_nodes":[],"categories_segments":[],"categories_sizes":[],"default_left":[0,0,0,0,0],"id":120,"left_children":[1,3,-1,-1,-1],"loss_changes":[3.3446765E2,2.3014877E1,0E0,0E0,0E0],"parents":[2147483647,0,0,1,1],"right_children":[2,4,-1,-1,-1],"split_conditions":[9.0782605E-2,-2.4036606E-1,9.418283E-3,-0E0,-8.987729E-3],"split_indices":[15,385,0,0,0],"split_type":[0,0,0,0,0],"sum_hessian":[4.0872333E2,2.2256198E2,1.8616135E2,2.0111938E1,2.0245004E2],"tree_param":{"num_deleted":"0","num_feature":"768","num_nodes":"5","size_leaf_vector":"1"}},{"base_weights":[-0E0,8.9152366E-1,-7.917051E-1,9.981638E-3,-0E0,-0E0,-8.8572E-3],"categories":[],"categories_nodes":[],"categories_segments":[],"categories_sizes":[],"default_left":[0,0,0,0,0,0,0],"id":121,"left_children":[1,3,5,-1,-1,-1,-1],"loss_changes":[3.1072983E2,2.2044647E1,1.8447128E1,0E0,0E0,0E0,0E0],"parents":[2147483647,0,0,1,1,2,2],"right_children":[2,4,6,-1,-1,-1,-1],"split_conditions":[6.931911E-2,2.3955551E-3,-1.8838151E-1,9.981638E-3,-0E0,-0E0,-8.8572E-3],"split_indices":[553,528,192,0,0,0,0],"split_type":[0,0,0,0,0,0,0],"sum_hessian":[4.0795157E2,1.8366922E2,2.2428233E2,1.6520798E2,1.8461245E1,2.4988943E1,1.992934E2],"tree_param":{"num_deleted":"0","num_feature":"768","num_nodes":"7","size_leaf_vector":"1"}},{"base_weights":[-0E0,-8.376807E-3,8.950729E-1,-0E0,1.0470469E-2],"categories":[],"categories_nodes":[],"categories_segments":[],"categories_sizes":[],"default_left":[0,0,0,0,0],"id":122,"left_children":[1,-1,3,-1,-1],"loss_changes":[3.3731424E2,0E0,2.745816E1,0E0,0E0],"parents":[2147483647,0,0,2,2],"right_children":[2,-1,4,-1,-1],"split_conditions":[8.1265855E-1,-8.376807E-3,-1.9883712E-1,-0E0,1.0470469E-2],"split_indices":[463,0,491,0,0],"split_type":[0,0,0,0,0],"sum_hessian":[4.153727E2,2.1129556E2,2.0407715E2,3.4473137E1,1.6960402E2],"tree_param":{"num_deleted":"0","num_feature":"768","num_nodes":"5","size_leaf_vector":"1"}},{"base_weights":[-0E0,-7.510792E-1,9.254531E-1,-8.939617E-3,-0E0,1.01632085E-2,-0E0],"categories":[],"categories_nodes":[],"categories_segments":[],"categories_sizes":[],"default_left":[0,0,0,0,0,0,0],"id":123,"left_children":[1,3,5,-1,-1,-1,-1],"loss_changes":[3.0202472E2,2.9754654E1,1.7009125E1,0E0,0E0,0E0,0E0],"parents":[2147483647,0,0,1,1,2,2],"right_children":[2,4,6,-1,-1,-1,-1],"split_conditions":[-2.4750696E-1,3.273444E-1,-5.432428E-1,-8.939617E-3,-0E0,1.01632085E-2,-0E0],"split_indices":[533,44,702,0,0,0,0],"split_type":[0,0,0,0,0,0,0],"sum_hessian":[4.0387973E2,2.3271747E2,1.7116228E2,1.965037E2,3.6213768E1,1.5548708E2,1.5675211E1],"tree_param":{"num_deleted":"0","num_feature":"768","num_nodes":"7","size_leaf_vector":"1"}},{"base_weights":[-1.4611838E-2,-7.606817E-1,8.4326774E-1,-0E0,-8.4931655E-3,-0E0,9.811875E-3],"categories":[],"categories_nodes":[],"categories_segments":[],"categories_sizes":[],"default_left":[0,0,0,0,0,0,0],"id":124,"left_children":[1,3,5,-1,-1,-1,-1],"loss_changes":[2.818486E2,2.3968994E1,1.8521881E1,0E0,0E0,0E0,0E0],"parents":[2147483647,0,0,1,1,2,2],"right_children":[2,4,6,-1,-1,-1,-1],"split_conditions":[5.9406612E-2,-7.071694E-1,2.9122078E-1,-0E0,-8.4931655E-3,-0E0,9.811875E-3],"split_indices":[41,195,585,0,0,0,0],"split_type":[0,0,0,0,0,0,0],"sum_hessian":[4.085181E2,2.3012677E2,1.7839134E2,1.5660432E1,2.1446634E2,3.183052E1,1.4656082E2],"tree_param":{"num_deleted":"0","num_feature":"768","num_nodes":"7","size_leaf_vector":"1"}},{"base_weights":[-0E0,8.395635E-1,-7.9737985E-1,9.724173E-3,-0E0,-0E0,-8.6686965E-3],"categories":[],"categories_nodes":[],"categories_segments":[],"categories_sizes":[],"default_left":[0,0,0,0,0,0,0],"id":125,"left_children":[1,3,5,-1,-1,-1,-1],"loss_changes":[2.932849E2,2.3044312E1,1.8463486E1,0E0,0E0,0E0,0E0],"parents":[2147483647,0,0,1,1,2,2],"right_children":[2,4,6,-1,-1,-1,-1],"split_conditions":[-5.762256E-1,6.742161E-1,2.88558E-2,9.724173E-3,-0E0,-0E0,-8.6686965E-3],"split_indices":[584,573,528,0,0,0,0],"split_type":[0,0,0,0,0,0,0],"sum_hessian":[4.0476797E2,1.9023196E2,2.1453603E2,1.6184523E2,2.8386724E1,1.1062791E1,2.0347324E2],"tree_param":{"num_deleted":"0","num_feature":"768","num_nodes":"7","size_leaf_vector":"1"}},{"base_weights":[-0E0,-8.767983E-3,8.055198E-1,9.848974E-3,-0E0],"categories":[],"categories_nodes":[],"categories_segments":[],"categories_sizes":[],"default_left":[0,0,0,0,0],"id":126,"left_children":[1,-1,3,-1,-1],"loss_changes":[3.0440024E2,0E0,2.994371E1,0E0,0E0],"parents":[2147483647,0,0,2,2],"right_children":[2,-1,4,-1,-1],"split_conditions":[4.4083714E-1,-8.767983E-3,4.1647203E-2,9.848974E-3,-0E0],"split_indices":[167,0,541,0,0],"split_type":[0,0,0,0,0],"sum_hessian":[3.9652322E2,1.9190128E2,2.0462195E2,1.6211517E2,4.2506767E1],"tree_param":{"num_deleted":"0","num_feature":"768","num_nodes":"5","size_leaf_vector":"1"}},{"base_weights":[-1.9537084E-2,-7.762298E-1,8.3423156E-1,-8.86292E-3,-0E0,9.494003E-3,-0E0],"categories":[],"categories_nodes":[],"categories_segments":[],"categories_sizes":[],"default_left":[0,0,0,0,0,0,0],"id":127,"left_children":[1,3,5,-1,-1,-1,-1],"loss_changes":[2.7763953E2,2.2679367E1,2.798793E1,0E0,0E0,0E0,0E0],"parents":[2147483647,0,0,1,1,2,2],"right_children":[2,4,6,-1,-1,-1,-1],"split_conditions":[1.2938622E-1,6.36911E-1,7.534361E-2,-8.86292E-3,-0E0,9.494003E-3,-0E0],"split_indices":[585,27,111,0,0,0,0],"split_type":[0,0,0,0,0,0,0],"sum_hessian":[3.9724197E2,2.2196802E2,1.7527396E2,1.951738E2,2.6794224E1,1.625058E2,1.2768163E1],"tree_param":{"num_deleted":"0","num_feature":"768","num_nodes":"7","size_leaf_vector":"1"}},{"base_weights":[-0E0,8.1231457E-1,-8.54629E-3,-0E0,1.0328554E-2],"categories":[],"categories_nodes":[],"categories_segments":[],"categories_sizes":[],"default_left":[0,0,0,0,0],"id":128,"left_children":[1,3,-1,-1,-1],"loss_changes":[3.0362692E2,2.8603256E1,0E0,0E0,0E0],"parents":[2147483647,0,0,1,1],"right_children":[2,4,-1,-1,-1],"split_conditions":[-2.5396243E-2,-2.346143E-1,-8.54629E-3,-0E0,1.0328554E-2],"split_indices":[295,762,0,0,0],"split_type":[0,0,0,0,0],"sum_hessian":[4.0276465E2,2.0107307E2,2.0169159E2,5.63732E1,1.4469987E2],"tree_param":{"num_deleted":"0","num_feature":"768","num_nodes":"5","size_leaf_vector":"1"}},{"base_weights":[-0E0,-8.158053E-3,8.160203E-1,-0E0,1.0343941E-2],"categories":[],"categories_nodes":[],"categories_segments":[],"categories_sizes":[],"default_left":[0,0,0,0,0],"id":129,"left_children":[1,-1,3,-1,-1],"loss_changes":[2.9007025E2,0E0,2.9270096E1,0E0,0E0],"parents":[2147483647,0,0,2,2],"right_children":[2,-1,4,-1,-1],"split_conditions":[8.1265855E-1,-8.158053E-3,3.0392095E-1,-0E0,1.0343941E-2],"split_indices":[463,0,194,0,0],"split_type":[0,0,0,0,0],"sum_hessian":[4.0173062E2,2.0544727E2,1.9628334E2,5.3191975E1,1.4309137E2],"tree_param":{"num_deleted":"0","num_feature":"768","num_nodes":"5","size_leaf_vector":"1"}},{"base_weights":[-0E0,8.629609E-1,-7.972285E-3,9.954183E-3,-0E0],"categories":[],"categories_nodes":[],"categories_segments":[],"categories_sizes":[],"default_left":[0,0,0,0,0],"id":130,"left_children":[1,3,-1,-1,-1],"loss_changes":[2.938077E2,2.1572952E1,0E0,0E0,0E0],"parents":[2147483647,0,0,1,1],"right_children":[2,4,-1,-1,-1],"split_conditions":[-3.885438E-1,-2.0935151E-1,-7.972285E-3,9.954183E-3,-0E0],"split_indices":[503,356,0,0,0],"split_type":[0,0,0,0,0],"sum_hessian":[3.92828E2,1.8942891E2,2.033991E2,1.599183E2,2.9510605E1],"tree_param":{"num_deleted":"0","num_feature":"768","num_nodes":"5","size_leaf_vector":"1"}},{"base_weights":[-0E0,8.296877E-1,-7.6760346E-1,9.2820395E-3,-0E0,-0E0,-8.452771E-3],"categories":[],"categories_nodes":[],"categories_segments":[],"categories_sizes":[],"default_left":[0,0,0,0,0,0,0],"id":131,"left_children":[1,3,5,-1,-1,-1,-1],"loss_changes":[2.6665506E2,2.1274094E1,1.8419907E1,0E0,0E0,0E0,0E0],"parents":[2147483647,0,0,1,1,2,2],"right_children":[2,4,6,-1,-1,-1,-1],"split_conditions":[8.197499E-2,-5.312258E-1,-5.204231E-1,9.2820395E-3,-0E0,-0E0,-8.452771E-3],"split_indices":[29,702,228,0,0,0,0],"split_type":[0,0,0,0,0,0,0],"sum_hessian":[3.8589197E2,1.7710141E2,2.0879057E2,1.6277795E2,1.4323454E1,1.3809456E1,1.9498112E2],"tree_param":{"num_deleted":"0","num_feature":"768","num_nodes":"7","size_leaf_vector":"1"}},{"base_weights":[-0E0,8.7077245E-3,-7.397314E-1,-8.701414E-3,-0E0],"categories":[],"categories_nodes":[],"categories_segments":[],"categories_sizes":[],"default_left":[0,0,0,0,0],"id":132,"left_children":[1,-1,3,-1,-1],"loss_changes":[2.660042E2,0E0,2.4060448E1,0E0,0E0],"parents":[2147483647,0,0,2,2],"right_children":[2,-1,4,-1,-1],"split_conditions":[-1.8923949E-1,8.7077245E-3,5.475403E-1,-8.701414E-3,-0E0],"split_indices":[111,0,167,0,0],"split_type":[0,0,0,0,0],"sum_hessian":[3.7949802E2,1.7128961E2,2.082084E2,1.7753978E2,3.0668634E1],"tree_param":{"num_deleted":"0","num_feature":"768","num_nodes":"5","size_leaf_vector":"1"}},{"base_weights":[-0E0,8.517316E-1,-7.9762405E-1,-0E0,9.76244E-3,-8.6888755E-3,-0E0],"categories":[],"categories_nodes":[],"categories_segments":[],"categories_sizes":[],"default_left":[0,0,0,0,0,0,0],"id":133,"left_children":[1,3,5,-1,-1,-1,-1],"loss_changes":[2.887256E2,2.1090164E1,1.852266E1,0E0,0E0,0E0,0E0],"parents":[2147483647,0,0,1,1,2,2],"right_children":[2,4,6,-1,-1,-1,-1],"split_conditions":[-1.4667092E-1,-1.21128984E-1,3.5612258E-1,-0E0,9.76244E-3,-8.6888755E-3,-0E0],"split_indices":[122,333,414,0,0,0,0],"split_type":[0,0,0,0,0,0,0],"sum_hessian":[3.9101862E2,1.8836156E2,2.0265706E2,2.6914867E1,1.6144669E2,1.9263786E2,1.00191965E1],"tree_param":{"num_deleted":"0","num_feature":"768","num_nodes":"7","size_leaf_vector":"1"}},{"base_weights":[-0E0,7.623401E-1,-8.43122E-3,9.294569E-3,-0E0],"categories":[],"categories_nodes":[],"categories_segments":[],"categories_sizes":[],"default_left":[0,0,0,0,0],"id":134,"left_children":[1,3,-1,-1,-1],"loss_changes":[2.6853638E2,2.7759705E1,0E0,0E0,0E0],"parents":[2147483647,0,0,1,1],"right_children":[2,4,-1,-1,-1],"split_conditions":[-1.9503693E-1,-1.9878775E-1,-8.43122E-3,9.294569E-3,-0E0],"split_indices":[584,356,0,0,0],"split_type":[0,0,0,0,0],"sum_hessian":[3.824786E2,1.9519034E2,1.8728827E2,1.5787962E2,3.731072E1],"tree_param":{"num_deleted":"0","num_feature":"768","num_nodes":"5","size_leaf_vector":"1"}},{"base_weights":[-1.2463517E-2,7.7206288E-3,-7.920189E-3],"categories":[],"categories_nodes":[],"categories_segments":[],"categories_sizes":[],"default_left":[0,0,0],"id":135,"left_children":[1,-1,-1],"loss_changes":[2.5539214E2,0E0,0E0],"parents":[2147483647,0,0],"right_children":[2,-1,-1],"split_conditions":[-6.5264493E-1,7.7206288E-3,-7.920189E-3],"split_indices":[484,0,0],"split_type":[0,0,0],"sum_hessian":[3.830407E2,1.801241E2,2.0291661E2],"tree_param":{"num_deleted":"0","num_feature":"768","num_nodes":"3","size_leaf_vector":"1"}},{"base_weights":[-0E0,7.7635324E-1,-7.855042E-3,-0E0,9.0599265E-3],"categories":[],"categories_nodes":[],"categories_segments":[],"categories_sizes":[],"default_left":[0,0,0,0,0],"id":136,"left_children":[1,3,-1,-1,-1],"loss_changes":[2.5310037E2,1.9152763E1,0E0,0E0,0E0],"parents":[2147483647,0,0,1,1],"right_children":[2,4,-1,-1,-1],"split_conditions":[-6.5264493E-1,1.0833026E-1,-7.855042E-3,-0E0,9.0599265E-3],"split_indices":[484,194,0,0,0],"split_type":[0,0,0,0,0],"sum_hessian":[3.808202E2,1.8245323E2,1.9836696E2,2.9662493E1,1.5279074E2],"tree_param":{"num_deleted":"0","num_feature":"768","num_nodes":"5","size_leaf_vector":"1"}},{"base_weights":[-0E0,-7.6731434E-3,7.8655446E-1,-0E0,9.39853E-3],"categories":[],"categories_nodes":[],"categories_segments":[],"categories_sizes":[],"default_left":[0,0,0,0,0],"id":137,"left_children":[1,-1,3,-1,-1],"loss_changes":[2.4960458E2,0E0,2.0987625E1,0E0,0E0],"parents":[2147483647,0,0,2,2],"right_children":[2,-1,4,-1,-1],"split_conditions":[-2.8274253E-2,-7.6731434E-3,-2.1782662E-1,-0E0,9.39853E-3],"split_indices":[220,0,697,0,0],"split_type":[0,0,0,0,0],